tree
version=v2
num_class=1
num_tree_per_iteration=1
label_index=0
max_feature_idx=99
objective=regression
feature_names=Column_0 Column_1 Column_2 Column_3 Column_4 Column_5 Column_6 Column_7 Column_8 Column_9 Column_10 Column_11 Column_12 Column_13 Column_14 Column_15 Column_16 Column_17 Column_18 Column_19 Column_20 Column_21 Column_22 Column_23 Column_24 Column_25 Column_26 Column_27 Column_28 Column_29 Column_30 Column_31 Column_32 Column_33 Column_34 Column_35 Column_36 Column_37 Column_38 Column_39 Column_40 Column_41 Column_42 Column_43 Column_44 Column_45 Column_46 Column_47 Column_48 Column_49 Column_50 Column_51 Column_52 Column_53 Column_54 Column_55 Column_56 Column_57 Column_58 Column_59 Column_60 Column_61 Column_62 Column_63 Column_64 Column_65 Column_66 Column_67 Column_68 Column_69 Column_70 Column_71 Column_72 Column_73 Column_74 Column_75 Column_76 Column_77 Column_78 Column_79 Column_80 Column_81 Column_82 Column_83 Column_84 Column_85 Column_86 Column_87 Column_88 Column_89 Column_90 Column_91 Column_92 Column_93 Column_94 Column_95 Column_96 Column_97 Column_98 Column_99
feature_infos=[0:2879.3829999999998] [1.9169999999999998:5999.9669999999996] [0:2878.5250000000001] [0:1450.44339542994] [0:2879.2170000000001] [0:2878.5250000000001] [0:2879.1669999999999] [-85:1] [-10:1] [0:2879.1669999999999] [-88:1] [0:2879.1999999999998] [-1:12959] [4843:6837] [0:2879.1669999999999] [0:0.57700000000000007] [-1:5759] [246965:262057] [-1:100] [-1:12957] [-1:12957] [0:1] [-57:1] [0:1427.4670000000001] [-5.9000000000000004:1] [0:0.70700000000000007] [-1:12955] [0:0.70700000000000007] [-1:12956] [0.0060000000000000001:1] [0.026000000000000002:1] [-28.166999999999998:1] [0:1] [0.018000000000000002:1] [0:0.46899999999999997] [-1:12959] [0:2879.25] [-1:12955] [0:6365.4569999999994] [-5:1] [-1:12959] [4371:15887] [-1:12957] [-4:1] [-0.78799999999999992:1] [33679:45091] [-1:12956.5] [0:0.48799999999999999] [-1:12957] [-1:12957] [0:1] [0:6450.1239999999998] [0:0.57700000000000007] [-4.3330000000000002:1] [481:5372] [-1:19609] [1312:6230] [-3.2999999999999998:0.86699999999999999] [-1:4315] [0.050999999999999997:0.12] [-1:4315] [-26:1] [0.059000000000000004:0.111] [-1:12957] [-26:1] [-13:1] [-1:2876] [-1:8287.125] [0:1] [-1:12959] [-13:1] [231872:257344] [35303:46212] [226011:247200] [0:1] [0.121:0.16200000000000001] [789:2158] [127549:140523] [-0.75:1] [-1:5759] [2168:9284] [-8.3330000000000002:0.78599999999999992] [0:4063] [2:4065] [-1:12959] [0.0080000000000000002:0.18600000000000003] [-48:1] [-3.7999999999999998:1] [-1:12956.5] [479:3228] [-1:4315] [-1:4315] [-8.3330000000000002:0.25] [0:1] [0.10199999999999999:0.151] [0:6450.1239999999998] [-1:4735.0709999999999] [56714:328704] [-1:4735.0709999999999] [-1:19621]
tree_sizes=2652 2662 2673 2654 2674 2657 2641 2653 2647 2662 2662 2662 2669 2660 2658 2655 2646 2642 2660 2650 2653 2646 2655 2669 2657 2669 2672 2674 2672 2661 2672 2662 2639 2656 2660 2664 2644 2636 2672 2678 2672 2662 2694 2675 2660 2644 2694 2618 2612 2674 2610 2586 2550 2638 2593 2603 2586 2587 2542 2566 2610 2581 2524 2571 2580 2505 2526 2594 2518 2524 2517 2561 2515 2536 2535 2516 2550 2491 2542 2549 2548 2512 2534 2501 2543 2527 2513 2517 2519 2538 2537 2558 2536 2497 2490 2528 2520 2498 2536 2550 2506 2515 2562 2506 2526 2527 2529 2524 2535 2507 2499 2502 2525 2498 2482 2532 2491 2522 2489 2494

Tree=0
num_leaves=32
num_cat=0
split_feature=2 5 2 2 0 66 21 0 0 0 2 1 0 10 2 2 0 58 2 68 7 2 66 30 8 0 3 90 32 18 1
split_gain=1.15238e+10 2.81049e+09 1.60821e+09 3.25025e+08 2.89146e+08 1.75096e+08 1.64599e+08 9.62585e+07 8.56758e+07 7.17588e+07 7.11088e+07 4.59794e+07 3.28235e+07 3.16481e+07 2.99877e+07 2.78795e+07 2.71175e+07 2.31845e+07 2.17808e+07 1.92687e+07 1.91926e+07 1.78077e+07 1.69095e+07 1.48457e+07 1.3402e+07 1.32255e+07 1.1255e+07 1.52032e+07 1.12045e+07 1.1198e+07 1.05284e+07
threshold=349.56542857142864 830.26675000000012 102.47378571428573 510.50350000000009 1161.1250000000002 1530.5000000000002 1.0000000180025095e-35 189.47500000000005 688.42500000000007 776.31650000000013 32.632071428571436 96.866500000000016 1321.2085000000004 0.99500000000000011 415.33685714285724 1320.0452142857146 946.07500000000016 638.75000000000011 220.42378571428569 1.0000000180025095e-35 0.49600000000000005 622.92507142857153 928.50000000000011 0.48950000000000005 0.10750000000000003 84.408500000000018 140.55282654752315 229.75000000000003 1.0000000180025095e-35 2.1780000000000004 277.84150000000005
decision_type=10 10 8 10 8 2 2 10 8 8 10 8 10 10 10 10 10 2 10 2 10 10 2 2 10 10 8 2 2 2 8
left_child=2 3 10 14 16 15 7 25 21 20 -1 -12 17 18 -2 -6 -3 -10 -9 -17 26 28 -21 -14 -13 30 -8 -28 -5 -22 -4
right_child=1 4 6 8 5 -7 9 13 12 -11 11 24 23 -15 -16 19 -18 -19 -20 22 29 -23 -24 -25 -26 -27 27 -29 -30 -31 -32
leaf_value=139.39380777186372 177.24765706551239 227.92041305945293 165.10613146058185 192.89157901342813 260.52187489008816 421.74383347127616 169.48878120821925 158.77437709598337 203.41454745032547 214.8713635264445 192.64086192150137 144.1037824155606 323.96132074779359 250.1498287586283 185.16620601401425 275.74023943716287 245.2648558344161 217.71785505393868 167.63555868123049 395.4161296263743 189.79622238545062 202.04782130016281 290.57724202261454 242.78241463990975 151.11713952505647 155.40567874009935 193.95748176611531 169.79613059719577 141.06806317071491 262.147015456134 147.28544082259842
leaf_count=147704 9953 2164 352 6242 1674 78 11610 4529 2270 384 207 16465 27 43 9206 2465 1545 2263 7158 25 306 2874 40 136 3265 4670 459 602 42 23 5699
internal_value=0 483.518 -97.5815 354.712 1015.65 1192.69 94.706 42.3779 471.396 182.484 -138.685 -82.6269 581.216 104.977 270.336 1165.14 811.263 565.362 101.827 1231.38 169.899 415.084 1768.81 1022.1 -87.5459 -26.113 163.708 262.296 385.262 408.352 -56.9686
internal_count=244480 41004 203476 33013 7991 4282 35835 22451 13854 13384 167641 19937 4696 11730 19159 4204 3709 4533 11687 2530 13000 9158 65 163 19730 10721 12671 1061 6284 329 6051
shrinkage=1


Tree=1
num_leaves=32
num_cat=0
split_feature=2 5 2 2 0 66 21 0 2 0 0 2 1 0 10 0 73 90 7 19 2 30 22 0 2 68 1 0 2 0 18
split_gain=9.33429e+09 2.2765e+09 1.30265e+09 2.64874e+08 2.36898e+08 1.46283e+08 1.33325e+08 7.87771e+07 5.83672e+07 5.81246e+07 5.07063e+07 4.45689e+07 4.14067e+07 3.4768e+07 2.48404e+07 2.413e+07 1.75536e+07 1.66112e+07 1.63634e+07 1.30427e+07 1.22857e+07 1.19489e+07 1.17788e+07 1.16767e+07 1.12952e+07 1.12477e+07 1.65069e+07 1.11227e+07 1.08045e+07 1.04857e+07 8.9275e+06
threshold=349.56542857142864 830.26675000000012 102.47378571428573 543.6000714285716 1096.1500000000003 1530.5000000000002 1.0000000180025095e-35 228.95850000000004 25.153571428571432 776.31650000000013 714.22500000000014 450.01307142857149 132.97500000000002 1288.0085000000001 0.99500000000000011 1321.2085000000004 233564.50000000003 624.25000000000011 0.19900000000000004 1087.5000000000002 184.25957142857143 0.48950000000000005 0.31750000000000006 459.14150000000006 646.953642857143 1.0000000180025095e-35 986.80850000000009 859.30850000000009 262.75485714285725 78.475000000000009 2.1575000000000002
decision_type=10 10 8 10 8 2 2 10 10 8 8 10 8 8 10 10 2 2 10 2 10 2 10 10 10 2 10 10 10 8 2
left_child=2 3 8 11 27 13 7 16 -1 18 23 19 -10 -6 28 17 20 -12 -8 22 -4 -17 -2 -5 -25 -15 -27 -3 -9 -14 -20
right_child=1 4 6 10 5 -7 9 14 12 -11 15 -13 29 25 -16 21 -18 -19 30 -21 -22 -23 -24 24 -26 26 -28 -29 -30 -31 -32
leaf_value=-13.268290857211596 21.919331464998042 58.720415130777567 -0.65608725218720865 30.758312320333474 92.019065106124216 240.95237864958938 14.439452093366379 7.1348947957645725 28.031988977816457 54.767156051099306 44.602378809571618 31.363389948809807 -9.6063528047802436 108.46097842550147 88.380347042548948 152.94811463532625 -4.7450654275272468 57.860178674383555 27.753183558692992 10.009575446635061 8.7774771348122975 79.589810344505324 32.777173678778908 38.023294946043286 47.163950262330367 215.42579396565759 118.38239271897538 73.013332207080268 13.888791548055384 -4.6840393539540193 84.409423808393811
leaf_count=142342 11746 705 3951 1269 1824 78 12292 4937 314 384 1695 8232 19416 2904 41 27 6847 2136 679 844 2122 125 1092 3725 2122 24 65 2391 4553 5569 29
internal_value=0 435.166 -87.8233 319.24 914.085 1051.02 85.2354 38.1401 -124.816 164.235 445.103 255.494 -80.5567 1029.02 107.108 535.447 -12.7367 519.944 152.909 220.513 26.4015 926.206 228.429 394.535 413.406 1095.34 1445.51 697.586 103.752 -85.092 300.738
internal_count=244480 41004 203476 33013 7991 4895 35835 22451 167641 13384 11099 21914 25299 4817 9531 3983 12920 3831 13000 13682 6073 152 12838 7116 5847 2993 89 3096 9490 24985 708
shrinkage=0.1


Tree=2
num_leaves=32
num_cat=0
split_feature=2 5 2 2 0 66 21 0 0 2 0 0 2 1 10 0 19 1 32 2 2 68 32 1 41 66 2 1 15 1 72
split_gain=7.56363e+09 1.94365e+09 9.24361e+08 2.50664e+08 1.91887e+08 1.18489e+08 9.64406e+07 5.96621e+07 5.68185e+07 4.8278e+07 4.72446e+07 2.95752e+07 2.89786e+07 2.74044e+07 2.52912e+07 2.18373e+07 1.55959e+07 1.52808e+07 1.46159e+07 1.36474e+07 1.33206e+07 1.30263e+07 1.27817e+07 1.24334e+07 1.22963e+07 1.15073e+07 1.12681e+07 1.73762e+07 1.11746e+07 1.10553e+07 1.1391e+07
threshold=330.36907142857149 830.26675000000012 102.47378571428573 510.50350000000009 1096.1500000000003 1530.5000000000002 1.0000000180025095e-35 176.80850000000004 688.42500000000007 40.25121428571429 859.30850000000009 465.20850000000002 1320.0452142857146 205.74200000000005 0.99500000000000011 1321.2085000000004 199.50000000000003 671.77500000000009 1.0000000180025095e-35 193.77378571428574 415.33685714285724 1.0000000180025095e-35 1.0000000180025095e-35 579.57500000000016 5231.5000000000009 928.50000000000011 8.8940000000000001 185.93350000000001 0.021500000000000005 277.84150000000005 43217.000000000007
decision_type=10 10 8 10 8 2 2 10 8 10 8 8 10 8 10 10 2 8 2 10 10 2 2 10 2 2 10 8 2 8 2
left_child=2 3 9 11 -3 12 7 29 22 26 16 18 -6 -11 19 17 -8 -10 20 -9 -2 -14 23 -5 -17 -23 -1 -28 -26 -4 -31
right_child=1 4 6 8 5 -7 10 14 15 13 -12 -13 21 -15 -16 24 -18 -19 -20 -21 -22 25 -24 -25 28 -27 27 -29 -30 30 -32
leaf_value=-12.184015232612978 17.354050380286161 62.78278229849591 12.220661658249012 30.758125943067682 84.426619394058832 216.85713939177685 23.293111884497332 2.745590745957287 39.909872497958737 16.774424003082085 49.988579441607001 27.859469815005834 98.800071112867613 -6.6880026240437704 88.310006138605956 152.67369937896729 11.863045972505789 51.526792287581173 -13.116883228846959 10.043867123464592 23.344861716768474 197.37300878906251 -13.556252014427855 38.231533989139841 136.05657436536706 110.88750396728516 11.953230937722685 -10.249816752288416 59.862625818737484 -0.13375186128889124 -7.1255522057197016
leaf_count=124034 11262 3096 475 5219 2279 78 1357 3816 2201 515 361 4932 2473 14925 39 22 9923 2332 140 7798 5536 25 57 3882 23 40 357 27810 118 4961 4394
internal_value=0 376.843 -82.173 277.116 822.677 945.915 70.4766 30.7568 382.361 -112.335 143.778 210.446 926.117 -59.0542 79.1584 471.793 132.381 458.862 190.602 76.4588 193.284 999.615 336.502 339.459 831.406 1441.51 -117.74 -99.6841 722.914 -26.621 -34.1777
internal_count=244480 43715 200765 35724 7991 4895 33124 21483 13854 167641 11641 21870 4817 15440 11653 4696 11280 4533 16938 11614 16798 2538 9158 9101 163 65 152201 28167 141 9830 9355
shrinkage=0.1


Tree=3
num_leaves=32
num_cat=0
split_feature=2 5 2 0 0 66 21 0 5 2 0 2 4 8 0 1 96 2 32 7 45 2 1 17 13 68 33 23 66 8 17
split_gain=6.13194e+09 1.46394e+09 8.87896e+08 1.67762e+08 1.55947e+08 9.28888e+07 9.03799e+07 5.64783e+07 4.65706e+07 4.03262e+07 3.88808e+07 3.49082e+07 2.15138e+07 2.13737e+07 1.99884e+07 1.97265e+07 1.8185e+07 1.6311e+07 1.43597e+07 1.35745e+07 1.32169e+07 1.29166e+07 1.58739e+07 1.22622e+07 1.17235e+07 1.16363e+07 1.15206e+07 1.58075e+07 1.06598e+07 9.32152e+06 8.92337e+06
threshold=356.08350000000002 830.26675000000012 102.47378571428573 589.09150000000011 1161.1250000000002 1530.5000000000002 1.0000000180025095e-35 265.42500000000007 440.57500000000005 53.341785714285727 859.30850000000009 646.953642857143 103.0415 0.99500000000000011 1321.2085000000004 96.866500000000016 1037.1785000000002 1383.8606428571431 1.0000000180025095e-35 0.49600000000000005 43792.500000000007 12.282214285714288 96.866500000000016 247813.00000000003 4846.5000000000009 1.0000000180025095e-35 0.49650000000000011 1.0000000180025095e-35 1174.5000000000002 0.66500000000000015 247052.00000000003
decision_type=10 10 8 8 8 2 2 10 10 10 8 10 10 10 8 8 2 10 2 10 2 10 8 2 2 2 2 2 2 10 2
left_child=2 3 9 8 16 17 7 12 18 21 19 23 -4 30 -13 -11 -3 -6 -2 -8 -14 -1 -23 -5 -15 -19 27 -16 -27 -25 -9
right_child=1 4 6 11 5 -7 10 13 -10 15 -12 14 20 24 26 -17 -18 25 -20 -21 -22 22 -24 29 -26 28 -28 -29 -30 -31 -32
leaf_value=-10.923680456182357 17.963986082915095 54.619044140132807 -5.4364273287477687 19.769839994878268 80.029622267071133 195.1714333558694 12.00151783592748 -5.1462632724037274 26.675832274322417 30.965623519105147 45.317275943661315 42.678969248084428 4.3688095898568946 110.0248775359123 61.195431489210868 -4.5384980746133117 70.144071125305587 91.182836827321282 -14.586651482547289 32.207717544530844 -4.3707868362171665 27.736424234310785 -8.7123008963129394 32.576254274087397 31.131533257166549 179.6534570102034 59.747253954185638 170.44025392885564 93.912199244005933 52.795948849587774 10.612663702867712
leaf_count=129525 12607 2655 5316 737 2554 78 13292 379 10219 159 371 4324 7809 31 26 9922 1054 1592 137 341 2223 120 27915 3694 48 29 106 27 29 243 6918
internal_value=0 357.394 -70.2494 262.105 740.409 870.424 70.5708 31.6286 216.467 -101.101 133.762 376.55 -2.93216 103.543 439.594 -39.7852 590.308 850.362 176.141 125.069 24.3219 -105.024 -85.5629 316.081 620.897 927.857 787.81 1168.48 1367.83 338.243 97.9416
internal_count=244480 40111 204369 32120 7991 4282 36728 22724 22963 167641 14004 9157 15348 7376 4483 10081 3709 4204 12744 13633 10032 157560 28035 4674 79 1650 159 53 58 3937 7297
shrinkage=0.1


Tree=4
num_leaves=32
num_cat=0
split_feature=2 0 2 2 2 21 66 0 5 48 0 0 1 10 18 1 7 2 18 1 22 32 81 66 77 4 5 2 41 15 15
split_gain=4.97463e+09 1.33113e+09 5.53054e+08 1.66128e+08 1.65474e+08 7.28572e+07 6.80441e+07 4.55594e+07 4.28771e+07 3.45579e+07 2.40933e+07 2.0289e+07 2.70334e+07 1.92536e+07 1.68986e+07 1.49596e+07 1.20185e+07 1.32813e+07 1.27358e+07 1.16947e+07 1.15741e+07 1.07071e+07 1.20414e+07 1.04941e+07 1.03484e+07 1.02229e+07 9.95407e+06 9.94809e+06 9.34622e+06 1.43695e+07 8.2419e+06
threshold=318.55000000000001 859.30850000000009 79.8202142857143 1029.7417142857144 480.03928571428577 1.0000000180025095e-35 1530.5000000000002 176.80850000000004 676.28350000000012 165.50000000000003 1288.0085000000001 21.308500000000002 96.866500000000016 0.99500000000000011 0.13450000000000004 564.20850000000007 0.49600000000000005 769.23928571428587 2.1885000000000008 234.80850000000004 0.17450000000000002 1.0000000180025095e-35 -0.025499999999999998 597.50000000000011 139461.50000000003 83.941500000000005 546.2415000000002 220.42378571428569 10307.500000000002 0.027500000000000004 0.075500000000000012
decision_type=10 8 8 10 10 2 2 10 10 2 8 8 8 10 2 8 10 10 2 8 10 2 2 2 2 10 10 10 2 2 2
left_child=2 4 11 16 14 7 10 19 21 15 -5 -1 -13 27 28 -7 17 24 -18 -4 -16 22 -6 -10 -3 -21 -19 30 -2 -30 -9
right_child=1 3 5 6 8 9 -8 13 23 -11 -12 12 -14 -15 20 -17 18 26 -20 25 -22 -23 -24 -25 -26 -27 -28 -29 29 -31 -32
leaf_value=-9.6660978663487001 12.235405224135226 35.793397277902123 13.935658497741565 66.676293108514159 24.978931119429344 22.797398828345798 164.92951940199907 0.25847696688308613 33.743161774500678 9.5134085283207259 80.573009604338424 36.558823284485889 -6.4957389739810969 72.87578144517056 15.852332226062993 53.354164126484662 62.938653423475188 118.01774963980372 144.73671162923176 -6.2399161794884312 23.356489472680256 -13.481008294049431 33.942362575623072 44.083172211535476 105.15448343266142 -0.45132808200169267 50.451808480462205 8.7021641679971964 -4.8039459065935803 32.205255762475439 8.5438512716817225
leaf_count=145409 2811 966 414 2156 10064 920 85 3878 2387 9614 2961 147 18407 43 14754 194 92 22 24 5721 2388 68 1761 1667 22 6537 2453 5905 749 122 1739
internal_value=0 298.015 -68.3385 647.829 214.479 45.8421 761.918 15.4724 291.136 114.454 747.178 -92.6874 -61.5463 60.8561 155.775 281.188 482.002 471.396 798.624 -25.9466 168.977 260.862 263.138 379.95 373.379 -31.5295 510.524 58.3635 94.3091 3.79892 28.2359
internal_count=244480 45552 198928 8781 36771 34965 5202 24237 15947 10728 5117 163963 18554 11565 20824 1114 3579 3463 116 12672 17142 11893 11825 4054 988 12258 2475 11522 3682 871 5617
shrinkage=0.1


Tree=5
num_leaves=32
num_cat=0
split_feature=21 0 0 0 4 19 0 1 4 0 5 4 0 0 10 1 98 0 17 39 72 45 77 5 86 64 58 17 16 93 57
split_gain=4.00015e+09 1.19418e+09 3.68455e+08 1.84461e+08 1.41101e+08 5.78872e+07 4.75035e+07 4.15997e+07 3.19606e+07 2.65535e+07 2.19275e+07 1.89535e+07 1.74931e+07 1.61731e+07 1.57417e+07 1.29998e+07 1.2098e+07 1.12175e+07 1.10565e+07 1.09271e+07 1.06788e+07 9.76529e+06 9.5441e+06 9.3593e+06 9.00217e+06 8.84797e+06 8.77246e+06 8.62579e+06 8.62028e+06 8.41209e+06 7.99686e+06
threshold=1.0000000180025095e-35 859.30850000000009 95.625000000000014 450.642 1089.1750000000002 2374.0000000000005 304.32500000000005 671.77500000000009 371.43350000000004 776.31650000000013 13.708500000000003 228.22500000000002 1415.1085000000003 1288.0085000000001 0.25200000000000006 797.64150000000006 538.46450000000016 1321.2085000000004 247052.00000000003 0.18750000000000003 44033.500000000007 44938.500000000007 139461.50000000003 20.591500000000007 0.025500000000000005 -0.10649999999999998 230.75000000000003 247428.00000000003 1530.5000000000002 1.0000000180025095e-35 0.023500000000000004
decision_type=2 8 10 10 10 2 10 10 10 10 10 10 10 8 10 8 2 10 2 10 2 2 2 10 10 2 2 2 2 2 2
left_child=2 3 10 8 15 13 11 16 14 18 -1 -4 -7 -6 23 17 27 22 -8 -12 -13 -20 -3 -2 -10 -19 -21 -5 -9 -16 -27
right_child=1 4 6 7 5 12 9 28 24 -11 19 20 -14 -15 29 -17 -18 25 21 26 -22 -23 -24 -25 -26 30 -28 -29 -30 -31 -32
leaf_value=-8.6950575950378646 -9.0124569039595759 33.241133026815582 -0.93919883260063219 13.357848956399886 60.531995408112429 56.236726379394533 -4.524668586707115 35.106885442886842 15.398165929867226 44.409480860556059 -6.7185965765497304 8.5745308414846662 154.6411121028485 72.311069240464761 24.071796022232068 48.556917307583092 27.111959454848087 32.830932458241783 12.194251940130691 7.3727811744493836 -2.9661004858606352 2.1574227690379106 86.865332143446992 9.8973329410599504 22.383088523379541 142.47083711170015 -3.3818002866694408 22.414962653598689 87.235224986076361 67.830184589624409 66.89275902566456
leaf_count=145104 266 1394 10109 1282 1950 22 500 3664 6096 229 17901 4330 101 2898 362 2474 5250 42 6969 879 984 1126 34 16343 2646 21 5531 5849 32 50 42
internal_value=0 249.438 -65.7924 178.428 580.366 692.921 49.5043 262.481 125.976 108.022 -82.2939 16.0246 1370.4 675.732 100.735 440.733 234.688 368.375 99.0677 -54.4995 64.3754 107.981 345.179 95.9448 175.123 683.836 -19.0703 207.867 355.582 293.823 920.855
internal_count=244480 50818 193662 41840 8978 4971 24247 16077 25763 8824 169415 15423 123 4848 17021 4007 12381 1533 8595 24311 5314 8095 1428 16609 8742 105 6410 7131 3696 412 63
shrinkage=0.1


Tree=6
num_leaves=32
num_cat=0
split_feature=2 5 2 2 0 28 21 3 0 0 0 22 13 2 1 10 5 67 8 7 11 24 48 18 0 1 21 1 44 90 1
split_gain=3.2776e+09 9.48842e+08 2.77953e+08 1.30611e+08 1.01116e+08 5.01569e+07 3.89699e+07 2.7721e+07 2.59979e+07 2.56144e+07 1.60387e+07 1.53877e+07 1.83615e+07 1.44754e+07 1.87473e+07 1.3983e+07 1.30249e+07 1.23212e+07 1.0606e+07 9.67569e+06 9.08547e+06 8.97335e+06 8.80523e+06 8.64382e+06 8.15969e+06 7.89867e+06 7.57497e+06 7.37749e+06 6.96544e+06 6.91101e+06 6.38094e+06
threshold=292.51785714285722 799.2080000000002 79.8202142857143 480.03928571428577 1096.1500000000003 2389.5000000000005 1.0000000180025095e-35 140.55282654752315 589.09150000000011 95.625000000000014 330.34150000000005 0.65450000000000019 4846.5000000000009 12.959500000000004 196.14150000000004 0.99500000000000011 1372.5415 565.31250000000011 0.018500000000000006 0.25150000000000006 3.6415000000000002 0.39900000000000008 1038.5000000000002 2.1450000000000005 889.22500000000014 324.85850000000011 1.0000000180025095e-35 185.93350000000001 0.27350000000000002 240.75000000000003 564.20850000000007
decision_type=10 10 8 10 8 2 2 8 8 10 8 10 2 10 8 10 10 2 10 10 10 10 2 2 10 8 2 10 2 2 8
left_child=2 3 13 10 24 16 9 19 -5 25 22 17 -13 -1 26 18 -6 -10 28 -8 -17 -12 29 -21 -3 -4 -15 -7 -11 -2 -9
right_child=1 4 6 8 5 27 7 30 11 15 21 12 -14 14 -16 20 -18 -19 -20 23 -22 -23 -24 -25 -26 -27 -28 -29 -30 -31 -32
leaf_value=-7.9957894197217705 19.625816765801261 35.090599124700674 6.3113971250762626 19.817455807977129 56.727303749830469 148.69677350725448 5.9690128702193652 21.470652125248066 21.402286109597643 -0.71662254512320001 13.010330772522591 141.03497208595277 42.496073351401073 7.2467460891158559 -5.9781832353275819 102.39591362994651 67.41762855059396 30.035581469506724 7.2770922333496202 17.760747546755372 16.867017721246793 20.136460461841704 0.36113006808617287 81.949872580441564 44.568436762122751 -4.4675662042333117 38.466288811929765 94.860903167724615 5.0517264817048861 8.8672927706940143 42.241557617283348
leaf_count=130479 654 1595 744 8508 2971 70 6885 576 2611 5983 14672 20 347 473 33076 23 1849 4506 4386 452 27 2009 1137 22 2110 7882 93 40 3220 6861 199
internal_value=0 228.228 -58.9205 165.232 529.709 623.52 28.9121 88.1492 235.99 7.27113 120.565 278.98 478.66 -75.1892 -56.6938 34.2451 608.282 268.683 32.3028 69.2043 562.103 138.686 85.6269 207.4 404.882 -35.3787 123.765 1291.2 13.0164 98.0356 268.041
internal_count=244480 49960 194520 41325 8635 4930 30399 8134 15992 22265 25333 7484 367 164121 33642 13639 4820 7117 13589 7359 50 16681 8652 474 3705 8626 566 110 9203 7515 775
shrinkage=0.1


Tree=7
num_leaves=32
num_cat=0
split_feature=2 5 2 2 5 35 2 21 4 1 3 8 72 2 1 2 23 33 1 1 15 8 5 48 55 8 13 55 16 86 54
split_gain=2.66173e+09 6.04462e+08 4.26222e+08 7.77865e+07 5.30021e+07 3.16319e+07 3.0842e+07 3.01312e+07 2.255e+07 1.97248e+07 1.96757e+07 1.58515e+07 1.30857e+07 1.10521e+07 1.06642e+07 1.03089e+07 1.14685e+07 2.01902e+07 7.47351e+06 7.38839e+06 7.22624e+06 7.02907e+06 7.01853e+06 6.9583e+06 6.6298e+06 6.66085e+06 6.6125e+06 7.81096e+06 6.55997e+06 6.39267e+06 6.33828e+06
threshold=370.71907142857145 869.29150000000016 128.36178571428573 602.1773571428572 1211.0585000000003 2192.5000000000005 53.341785714285727 1.0000000180025095e-35 228.22500000000002 241.04150000000001 188.8611502365938 0.32450000000000007 44033.500000000007 460.30471428571434 999.07500000000016 769.23928571428587 0.041500000000000009 0.52250000000000008 2226.8585000000007 61.741500000000009 0.011500000000000002 0.15450000000000003 1.5332500000000004 138.50000000000003 598.50000000000011 0.25850000000000006 6762.0000000000009 1387.5000000000002 1530.5000000000002 0.39550000000000007 1077.0000000000002
decision_type=10 10 8 10 10 2 10 2 10 8 8 10 2 10 10 10 2 2 8 8 2 10 10 2 2 10 2 2 2 8 2
left_child=2 3 6 11 14 -6 19 8 30 23 24 13 -10 -2 -3 -5 28 -18 -7 22 -14 -11 -1 -8 -9 -26 -16 -28 -17 -12 -4
right_child=1 4 7 15 5 18 9 10 12 21 29 -13 20 -15 26 16 17 -19 -20 -21 -22 -23 -24 -25 25 -27 27 -29 -30 -31 -32
leaf_value=-1.1334244064051935 12.049306057535311 37.729547975980999 4.0804038932326012 24.209053407374537 57.803050529604484 78.178913688659676 25.131170788707351 6.5635068036772228 8.0029954147401909 -3.8998849419088013 18.198304157048167 24.163908198736735 -7.6842783085267543 16.740817506956173 46.910430437672616 30.43756043444985 157.02574172973632 25.473936469214305 132.50658472033516 -6.9490420879381949 4.5761845893346154 2.7553917979917162 29.993541421824034 6.1141870693387688 9.3677230695388243 19.528475885955814 47.090482036884019 112.66601984360639 81.917197097778327 37.616499258577825 -1.9014422195712308
leaf_count=270 10137 2146 2316 5531 3248 40 298 10565 8106 11125 602 1802 903 9950 1739 2507 20 28 69 157304 1028 1851 99 543 3601 786 39 34 25 236 7532
internal_value=0 245.637 -44.5008 182.789 503.385 595.813 -65.189 54.9475 29.0502 -19.8863 87.561 151.792 62.4068 143.732 424.992 266.439 318.638 802.872 1125.7 -69.1589 -11.5722 -29.5052 72.1771 128.527 79.2041 111.882 481.481 776.325 309.459 236.669 -4.94664
internal_count=244480 37315 207165 30000 7315 3357 171490 35675 19885 13817 15790 21889 10037 20087 3958 8111 2580 48 109 157673 1931 12976 369 841 14952 4387 1812 73 2532 838 9848
shrinkage=0.1


Tree=8
num_leaves=32
num_cat=0
split_feature=2 0 0 0 4 19 8 2 74 13 29 2 2 5 1 0 0 9 96 21 79 17 44 26 0 3 81 16 6 15 41
split_gain=2.15945e+09 6.48983e+08 1.64617e+08 9.36858e+07 7.06661e+07 3.24074e+07 2.92083e+07 2.4391e+07 1.68071e+07 2.18529e+07 2.11435e+07 1.42979e+07 1.19968e+07 1.18433e+07 1.7175e+07 1.03178e+07 1.00552e+07 9.53155e+06 8.89273e+06 8.74177e+06 7.95717e+06 7.63711e+06 7.25823e+06 7.18339e+06 7.12957e+06 6.34261e+06 6.3096e+06 6.10776e+06 6.00497e+06 5.77774e+06 8.04698e+06
threshold=281.66653571428577 859.30850000000009 74.291500000000013 465.20850000000002 1089.1750000000002 2374.0000000000005 0.14400000000000004 646.953642857143 1.0000000180025095e-35 4846.5000000000009 0.93550000000000011 135.42257142857144 399.20842857142867 2.4332500000000006 216.82500000000002 1415.1085000000003 1288.0085000000001 580.55850000000009 93.1785 1.0000000180025095e-35 1530.5000000000002 247428.00000000003 0.36450000000000005 153.50000000000003 44.708500000000008 182.73711605957183 -0.13499999999999998 367.50000000000006 816.09150000000011 0.0095000000000000032 9579.0000000000018
decision_type=10 8 8 10 10 2 8 10 2 2 2 10 10 10 8 10 8 8 2 2 2 2 2 2 10 10 2 2 8 2 2
left_child=2 3 13 12 -3 16 11 21 25 10 -10 19 29 -1 18 -7 17 -6 -15 22 -9 27 -4 -11 -14 -8 -26 -5 -19 30 -2
right_child=1 4 6 7 5 15 8 20 9 23 -12 -13 24 14 -16 -17 -18 28 -20 -21 -22 -23 -24 -25 26 -27 -28 -29 -30 -31 -32
leaf_value=-6.6335531442175331 8.450526197478947 32.57827626264632 -4.6672799488515597 5.0614589002253103 5.9160640835762024 39.321439430930404 2.9563760524628089 24.612844956229559 17.285764633185831 22.927155643701553 99.755070502182548 2.6622166716140363 -13.323766033560316 29.636751142526283 -5.057228667077176 114.89567783469022 53.132928197882329 83.986915316948526 3.8960698679275616 13.981138907555613 73.882889025139079 17.599054497140287 2.1622774294258176 9.5435908779778185 7.7351607270363507 19.068034952040406 14.041808848565314 17.193068722114681 44.338211420197645 8.5459174202084274 -4.3205012960837816
leaf_count=117213 1123 3790 6799 960 64 22 3443 4890 67 520 58 12732 107 156 46437 101 2913 39 961 310 33 9513 2018 1753 2040 263 7134 731 1860 15550 880
internal_value=0 181.176 -48.8955 130.525 428.764 506.839 22.0469 190.762 83.2072 148.44 555.515 4.96827 94.3226 -60.9354 -47.6248 1013.78 494.051 438.733 74.9101 -25.2385 249.431 164.983 -31.0416 126.054 123.401 40.9976 126.394 103.058 451.525 78.9477 28.3969
internal_count=244480 51750 192730 42961 8789 4999 27963 16127 6104 2398 125 21859 26834 164767 47554 123 4876 1963 1117 9127 4923 11204 8817 2273 9281 3706 9174 1691 1899 17553 2003
shrinkage=0.1


Tree=9
num_leaves=32
num_cat=0
split_feature=2 0 0 2 2 21 66 2 26 4 66 0 32 31 59 58 1 9 62 0 80 0 68 66 89 22 33 1 69 78 44
split_gain=1.75053e+09 4.12633e+08 2.73023e+08 4.78407e+07 4.7636e+07 2.67417e+07 2.50777e+07 1.94346e+07 1.61964e+07 1.41805e+07 1.35076e+07 1.16538e+07 9.43375e+06 9.39901e+06 8.99536e+06 8.53287e+06 8.29197e+06 7.99589e+06 8.84606e+06 8.12771e+06 7.98839e+06 7.05804e+06 9.73844e+06 1.00162e+07 6.92045e+06 1.51538e+07 6.67785e+06 6.6603e+06 8.61941e+06 6.47599e+06 5.93681e+06
threshold=365.0345714285715 889.22500000000014 95.625000000000014 1149.0725714285716 553.72735714285727 1.0000000180025095e-35 1530.5000000000002 150.56064285714288 176.50000000000003 42.32500000000001 619.50000000000011 540.37500000000011 1.0000000180025095e-35 0.30950000000000005 0.10750000000000003 230.75000000000003 564.20850000000007 765.20850000000007 0.079500000000000015 1384.2750000000003 2418.5000000000005 1384.2750000000003 1.0000000180025095e-35 928.50000000000011 1015.5000000000001 0.10350000000000002 0.86150000000000004 157.41650000000001 751.50000000000011 -0.010499999999999999 0.53850000000000009
decision_type=10 8 8 10 10 2 2 10 2 10 2 10 2 10 2 2 8 10 2 8 2 8 2 2 2 10 2 10 2 2 2
left_child=2 4 9 17 12 7 21 30 16 -1 29 14 13 26 -9 -11 27 18 -3 -19 -13 -5 -23 -24 25 -20 -2 28 -7 -6 -4
right_child=1 3 5 6 10 8 -8 11 -10 15 -12 20 -14 -15 -16 -17 -18 19 24 -21 -22 22 23 -25 -26 -27 -28 -29 -30 -31 -32
leaf_value=-5.67874236186349 11.310552704347806 6.6422140950629398 -2.8831122449827533 42.425883476480067 15.329756536451455 22.255992817116965 100.49414736579446 1.8313065404508848 6.1654074041259905 6.142517214997234 26.514262206642332 75.845058116206417 -14.859969101232643 19.032047345628065 7.2663153451392262 -3.0497635442185889 36.778850389749579 33.557069724182938 21.946665744185449 67.890485257162183 18.747675648905197 49.042989773311156 126.00834655761719 53.377230508937402 25.378694218840465 90.133565299294219 1.287131721221245 9.4800205249578031 89.969249106347561 21.07019341226184 3.0166749842155478
leaf_count=154105 17442 223 7699 2646 4520 313 85 8288 14002 1099 2305 27 136 1554 4814 12446 195 2388 80 71 265 1607 34 43 863 55 691 796 20 3477 2191
internal_value=0 196.398 -36.601 396.841 142.536 39.2121 467.027 17.8605 71.6505 -54.0608 197.697 42.6862 113.869 115.682 38.2826 -23.0393 177.368 312.638 246.487 345.484 240.272 456.468 507.076 854.481 286.722 497.265 109.286 144.478 263.229 178.256 -15.7609
internal_count=244480 38220 206260 8095 30125 38610 4415 23284 15326 167650 10302 13394 19823 19687 13102 13545 1324 3680 1221 2459 292 4330 1684 77 998 135 18133 1129 333 7997 9890
shrinkage=0.1


Tree=10
num_leaves=32
num_cat=0
split_feature=2 5 2 46 2 1 66 2 22 41 3 8 55 58 74 13 67 46 90 18 17 2 4 5 1 34 1 66 74 44 32
split_gain=1.43106e+09 4.21083e+08 1.22556e+08 5.81424e+07 4.36033e+07 2.57045e+07 1.86291e+07 1.28902e+07 1.20201e+07 1.54436e+07 8.45379e+06 8.01982e+06 7.93878e+06 8.39491e+06 7.93745e+06 1.23397e+07 7.73992e+06 1.11584e+07 7.52551e+06 7.60931e+06 7.01897e+06 6.91898e+06 6.65352e+06 6.59096e+06 1.10453e+07 8.43562e+06 6.5481e+06 6.25962e+06 6.16318e+06 5.99513e+06 5.61066e+06
threshold=292.51785714285722 749.15425000000016 70.779714285714292 1020.7500000000001 480.03928571428577 234.80850000000004 1530.5000000000002 184.25957142857143 0.66600000000000015 4579.5000000000009 140.55282654752315 0.13050000000000003 754.50000000000011 145.25000000000003 1.0000000180025095e-35 4846.5000000000009 1110.9375000000002 712.75000000000011 240.75000000000003 0.13450000000000004 247428.00000000003 1396.4357142857145 1199.0085000000001 1.8540000000000003 96.866500000000016 0.016500000000000004 579.57500000000016 742.50000000000011 1.0000000180025095e-35 0.36450000000000005 1.0000000180025095e-35
decision_type=10 10 8 2 10 10 2 10 10 2 10 8 2 2 2 2 2 2 2 2 2 10 8 10 8 10 10 2 2 2 2
left_child=2 4 23 21 18 10 22 11 16 -10 12 29 -4 -14 -13 -16 26 -18 20 -20 -2 -3 -5 -1 25 -25 -6 -9 -23 -7 -28
right_child=1 3 5 6 8 7 -8 27 9 -11 -12 14 13 -15 15 -17 17 -19 19 -21 -22 28 -24 24 -26 -27 30 -29 -30 -31 -32
leaf_value=-5.4276961608977867 1.3147024280116673 25.275789685132509 6.6114917469276833 34.747593554818302 12.365861527645626 -3.3555824822442748 83.935790317588385 3.6941667427067872 115.9340365600586 26.31990643851757 20.723514326119354 1.5995425939444188 91.034589732776993 19.132662920894163 78.77240524291993 11.884065837034008 110.10804094314577 23.48790864368965 4.157795713751768 8.4815125588633666 18.001292365576877 89.355653052176194 42.636310709503185 65.870556044580013 -4.1461388524058451 10.263799144899522 17.075454348233873 -3.6604193775087341 34.285445190688314 2.0653701669899642 -18.776876935091888
leaf_count=111946 315 4939 2095 1569 8487 9894 99 12932 20 500 662 2446 22 62 30 342 20 58 5211 18595 1262 31 3356 32 49947 185 5479 1271 59 2570 44
internal_value=0 150.823 -38.7974 333.777 104.832 17.4248 409.865 8.67168 148.359 297.666 108.268 -11.4855 78.2013 379.641 36.6927 172.783 142.848 456.982 79.7824 75.3508 146.682 257.765 401.231 -50.0086 -40.4833 184.639 141.099 30.3602 532.541 -22.3782 167.898
internal_count=244480 50044 194436 10053 39991 32326 5024 29485 14608 520 2841 15282 2179 84 2818 372 14088 78 25383 23806 1577 5029 4925 162110 50164 217 14010 14203 90 12464 5523
shrinkage=0.1


Tree=11
num_leaves=32
num_cat=0
split_feature=0 0 5 0 0 26 21 0 33 72 88 17 0 10 88 21 66 43 13 55 2 1 17 47 45 96 80 29 10 22 3
split_gain=1.17661e+09 3.02712e+08 1.48036e+08 3.76028e+07 3.08985e+07 2.49017e+07 2.22757e+07 2.9222e+07 1.62623e+07 1.33994e+07 1.17667e+07 1.15178e+07 1.01204e+07 1.28547e+07 9.80702e+06 8.72082e+06 7.82259e+06 7.6851e+06 7.08138e+06 7.33768e+06 6.88703e+06 6.8723e+06 6.73066e+06 6.20231e+06 7.40873e+06 6.19771e+06 6.09103e+06 5.80126e+06 5.70456e+06 9.32418e+06 5.42045e+06
threshold=340.20850000000002 889.22500000000014 72.491500000000016 540.37500000000011 1288.0085000000001 2374.0000000000005 1.0000000180025095e-35 116.99150000000002 0.45950000000000008 43217.000000000007 968.25000000000011 252478.00000000003 27.275000000000002 0.038500000000000006 642.75000000000011 1.0000000180025095e-35 222.50000000000003 -0.15849999999999997 6762.0000000000009 1387.5000000000002 237.4024285714286 971.00850000000003 247428.00000000003 0.013500000000000002 44938.500000000007 441.9645000000001 2349.5000000000005 0.75950000000000017 0.38600000000000007 0.66800000000000015 143.72562016588458
decision_type=10 10 8 10 10 2 2 10 2 2 2 2 8 10 2 2 2 2 2 2 10 10 2 10 2 2 2 2 10 10 10
left_child=2 3 12 15 10 -6 9 8 -8 20 -3 14 -1 -14 22 23 27 -10 -12 -20 -4 -19 -5 -2 -25 -17 -15 -9 30 -30 -29
right_child=1 4 6 11 5 -7 7 16 17 -11 18 -13 13 26 -16 25 -18 21 19 -21 -22 -23 -24 24 -26 -27 -28 28 29 -31 -32
leaf_value=-4.6549893761646883 -3.8184883969329229 22.533364373316928 0.83667433098965083 5.6905802729859287 38.386471171464635 87.199792038952864 94.848212388157847 6.0303118959981497 61.95780032687717 -2.9097313299920171 31.397019639213166 24.989437443058751 -2.6222410045633637 66.667296009063719 18.474589630416826 7.8297694634541859 3.0863051067826972 16.100516740999932 32.08547900655995 89.20643594915218 5.7653710483863794 52.134822195973896 13.743848113089838 8.0895009221752705 -2.2439092958930638 11.746400529439827 10.516222870318348 6.8262302909323793 98.333606319427489 21.487569241841637 21.59293046305654
leaf_count=150439 658 2422 8082 1273 3233 108 32 3417 45 6973 2216 1169 17002 20 4013 7954 9460 605 46 44 4367 58 5617 4450 822 8211 567 695 20 75 387
internal_value=0 151.822 -31.6875 110.681 326.03 399.644 28.2671 57.5023 251.188 5.99826 274.011 155.562 -43.8962 -21.1992 145.448 86.1593 47.3039 219.671 325.138 600.113 25.6562 192.528 122.559 53.3579 64.7834 98.1922 124.294 81.1591 141.707 376.657 121.079
internal_count=244480 42236 202244 34167 8069 3341 34216 14794 740 19422 4728 12072 168028 17589 10903 22095 14054 708 2306 90 12449 663 6890 5930 5272 16165 587 4594 1177 95 1082
shrinkage=0.1


Tree=12
num_leaves=32
num_cat=0
split_feature=0 0 4 5 0 28 21 0 77 88 47 2 1 77 50 0 13 66 6 0 78 33 8 47 7 50 13 55 1 1 80
split_gain=9.53947e+08 2.51294e+08 1.13148e+08 3.30765e+07 2.50278e+07 1.97324e+07 1.92092e+07 2.49365e+07 1.46501e+07 9.53102e+06 9.41462e+06 9.01667e+06 7.71849e+06 7.38998e+06 6.57113e+06 6.52186e+06 9.63841e+06 6.28029e+06 6.17293e+06 5.9653e+06 5.85098e+06 5.78062e+06 8.28887e+06 6.56039e+06 5.76563e+06 7.56502e+06 5.73592e+06 5.94352e+06 5.50387e+06 5.57059e+06 5.51056e+06
threshold=330.34150000000005 889.22500000000014 83.941500000000005 502.02500000000003 1288.0085000000001 2389.5000000000005 1.0000000180025095e-35 116.99150000000002 139461.50000000003 968.25000000000011 0.018500000000000006 735.3975714285715 96.866500000000016 130377.50000000001 1.0000000180025095e-35 3.9585000000000004 5489.5000000000009 222.50000000000003 136.15850000000003 3.3750000000000004 -0.012499999999999999 0.56950000000000001 0.10750000000000003 0.013500000000000002 0.063500000000000015 1.0000000180025095e-35 6762.0000000000009 1387.5000000000002 564.20850000000007 157.41650000000001 2706.5000000000005
decision_type=10 10 8 10 10 2 2 10 2 2 8 10 8 2 2 8 2 2 10 8 2 2 8 10 10 2 2 2 8 10 2
left_child=2 3 12 21 9 -6 10 8 28 -3 13 20 15 -4 -12 -1 -17 -9 -15 -14 -5 22 -2 -23 -21 -26 -11 -28 29 -8 -30
right_child=1 4 6 11 5 -7 7 17 -10 26 14 -13 19 18 -16 16 -18 -19 -20 24 -22 23 -24 -25 25 -27 27 -29 30 -31 -32
leaf_value=-1.1998344415019158 7.3984570397209914 20.280028072403152 7.3506620275018166 10.071056554685546 34.57682314468591 78.423692098653547 31.43715317334448 7.1572142130324172 94.206548036847806 28.257317075273193 -3.9925081413386012 18.409010569358077 -4.4384556239608557 -1.8675537195450422 4.7656553122986587 43.677467198318311 6.1019084480028516 2.5554065462207438 2.6382998149718548 -3.3437748671593748 15.113662986926531 -4.4631131324181075 12.996068188873757 6.07057485467086 -1.5714061955631684 11.838442259461265 28.876931016341501 80.28579091158781 51.335541403823427 5.0220950536912294 21.674332547997967
leaf_count=749 13112 2422 2041 5163 3235 106 112 4492 28 2216 5872 3289 118846 5005 1003 89 293 8728 7746 43135 4151 658 3314 5828 1614 569 46 44 90 278 206
internal_value=0 134.124 -29.0811 97.9307 293.427 359.68 22.056 51.0218 233.053 246.61 3.42817 139.079 -40.095 17.6392 -27.1477 42.2323 148.564 41.1905 8.6967 -40.6622 123.184 75.2968 85.2779 50.0194 -30.9003 19.2388 292.624 540.102 204.114 126.08 306.929
internal_count=244480 43584 200896 35515 8069 3341 35601 13934 714 4728 21667 12603 165295 14792 6875 1131 382 13220 12751 164164 9314 22912 16426 6486 45318 2183 2306 90 686 390 296
shrinkage=0.1


Tree=13
num_leaves=32
num_cat=0
split_feature=2 2 2 46 4 8 4 23 68 8 40 15 13 29 10 32 1 62 1 2 1 38 27 83 33 82 4 57 27 96 3
split_gain=7.69259e+08 2.33414e+08 5.73393e+07 2.96608e+07 2.6727e+07 1.74438e+07 9.49037e+06 8.21127e+06 2.49875e+07 7.98983e+06 7.97659e+06 7.7772e+06 7.63149e+06 1.65047e+07 6.14176e+06 5.31011e+06 5.46498e+06 5.67127e+06 5.09027e+06 5.16117e+06 5.05298e+06 6.67677e+06 4.95916e+06 7.3415e+06 4.84172e+06 7.96579e+06 6.47025e+06 7.2803e+06 4.70581e+06 4.61576e+06 4.48265e+06
threshold=281.66653571428577 769.23928571428587 70.779714285714292 1020.7500000000001 499.19150000000008 0.029500000000000002 1414.0915000000002 0.041500000000000009 1.0000000180025095e-35 0.33500000000000002 1920.5000000000002 0.011500000000000002 4846.5000000000009 0.88950000000000007 0.90000000000000013 1.0000000180025095e-35 592.04150000000016 0.082500000000000004 797.64150000000006 1396.4357142857145 157.41650000000001 217.82300000000004 0.080500000000000016 51.500000000000007 0.84550000000000003 56.500000000000007 391.14150000000006 0.088500000000000023 0.33950000000000008 531.39300000000014 97.983388769329181
decision_type=10 10 8 2 10 8 8 2 2 10 2 2 2 2 10 2 10 2 8 10 8 2 10 2 2 2 8 2 10 2 8
left_child=2 4 -1 7 14 -4 -5 18 -9 15 -8 -7 13 -13 24 16 17 -6 -3 -20 21 28 23 -11 26 -26 27 -2 -14 -25 -15
right_child=1 3 5 6 9 11 10 8 -10 22 -12 12 20 30 -16 -17 -18 -19 19 -21 -22 -23 -24 29 25 -27 -28 -29 -30 -31 -32
leaf_value=-3.6582407884354233 4.6247484180901486 14.091401499408875 -0.70765494669809481 28.646067637482119 13.463947235445083 -2.2854373101736538 35.237694349864988 24.562726662064545 146.9056305217743 11.205904985420695 65.003640361534536 7.3856884211462903 17.340713398137758 99.181031527519224 28.930548624318579 -18.202078574895861 13.399576532142683 7.1292892929776066 20.290321027145794 50.406724308277006 4.2593027978665097 70.414585318565372 12.731237836541322 21.890237905449339 6.276534194425345 -2.1216739248454268 8.5546784175218171 14.081614343551152 -2.0320113674437597 43.712906500725524 45.202119736373426
leaf_count=162110 14931 1742 19656 4605 1973 1543 298 101 20 233 129 185 430 25 115 64 4497 4982 3011 58 8418 20 643 180 2747 1918 8558 861 177 210 40
internal_value=0 108.097 -29.0991 245.67 75.3911 10.6834 299.685 190.559 447.847 113.513 442.302 42.893 53.8073 226.159 58.6634 105.224 106.829 89.2631 184.088 208.595 49.0436 135.648 188.919 252.503 57.7493 28.2364 63.4034 51.4035 116.917 336.409 659.632
internal_count=244480 51876 192604 9964 41912 30494 5032 4932 121 12782 427 10838 9295 250 29130 11516 11452 6955 4811 3069 9045 627 1266 623 29015 4665 24350 15792 607 390 65
shrinkage=0.1


Tree=14
num_leaves=32
num_cat=0
split_feature=0 0 0 0 0 4 26 21 0 4 17 12 0 17 9 4 17 72 33 4 1 11 1 10 34 81 20 92 55 65 82
split_gain=6.31973e+08 1.76201e+08 6.42306e+07 2.2932e+07 2.07505e+07 1.36117e+07 1.25812e+07 8.83417e+06 1.51347e+07 8.82985e+06 8.43283e+06 6.99153e+06 6.77994e+06 9.59165e+06 6.49435e+06 6.31506e+06 5.90313e+06 5.45052e+06 5.34191e+06 5.11609e+06 7.8002e+06 5.00146e+06 4.4566e+06 4.43778e+06 5.78694e+06 4.3322e+06 4.26459e+06 4.18142e+06 4.33648e+06 4.14227e+06 4.12794e+06
threshold=306.55850000000004 859.30850000000009 74.291500000000013 550.20850000000007 1321.2085000000004 561.18350000000009 2374.0000000000005 1.0000000180025095e-35 116.99150000000002 915.30850000000009 252478.00000000003 909.50000000000011 74.291500000000013 248671.00000000003 410.40850000000006 217.15850000000003 247428.00000000003 44033.500000000007 0.46050000000000008 2.4915000000000007 216.82500000000002 111.55850000000002 999.07500000000016 0.64350000000000007 0.019500000000000003 -0.13499999999999998 594.50000000000011 -1.0000000180025095e-35 1387.5000000000002 0.021500000000000005 3.5000000000000004
decision_type=10 10 8 10 10 10 2 2 10 10 2 2 10 2 10 10 2 2 2 10 10 8 10 10 10 2 2 2 2 2 2
left_child=2 3 19 14 9 7 -6 15 18 21 16 -12 13 -7 -2 -4 -5 -17 -9 -1 23 -3 -20 -21 -25 -16 -10 -11 -29 -28 -18
right_child=1 4 5 10 6 12 -8 8 26 27 11 -13 -14 -15 25 17 30 -19 22 20 -22 -23 -24 24 -26 -27 29 28 -30 -31 -32
leaf_value=-3.645066841033731 4.6194018681465101 47.538861865997319 -1.1304593211912317 5.0954246657661546 29.226718040901218 85.133646136522302 64.076887349729176 64.866253379980719 2.0885654951254469 22.044229588870575 17.65094867196369 48.610955385618574 11.861703034804302 13.517542045911155 4.130924544613567 4.1842639406819426 8.1260169775695008 -3.4855130568329225 14.034654615710688 3.4993370496143217 -2.6422669159275562 13.817609651096674 43.894586727835922 69.589614337423583 11.971888662046858 8.731444715114872 4.2459704572850088 26.948440059315075 61.550138734888151 19.733543522694173 13.095796482108796
leaf_count=114610 15479 45 14174 1668 2536 32 108 24 10168 3929 951 79 636 45 2622 4893 2369 1143 548 1246 49164 1947 55 23 72 9332 470 110 54 273 5675
internal_value=0 104.361 -24.761 75.0521 232.537 15.9036 306.502 12.8348 34.9119 200.398 114.22 200.256 152.547 432.801 59.7153 0.230842 105.095 27.3189 185.997 -32.7555 -24.3702 145.794 167.582 50.8778 259.214 77.2236 26.2299 226.972 383.417 99.3656 116.322
internal_count=244480 46904 197576 38175 8729 32461 2644 31748 11538 6085 10742 1030 713 77 27433 20210 9712 6036 627 165115 50505 1992 603 1341 95 11954 10911 4093 164 743 8044
shrinkage=0.1


Tree=15
num_leaves=32
num_cat=0
split_feature=0 5 4 4 0 91 8 21 13 0 0 30 30 96 67 3 77 32 0 72 87 50 7 60 48 56 7 29 0 3 12
split_gain=5.11262e+08 1.39277e+08 5.03132e+07 2.11204e+07 1.60794e+07 1.28107e+07 1.15631e+07 1.11679e+07 1.01184e+07 9.05692e+06 7.53426e+06 9.14299e+06 7.3955e+06 7.28953e+06 6.23529e+06 6.0617e+06 5.36388e+06 5.30205e+06 4.96063e+06 4.36376e+06 4.20758e+06 4.13752e+06 1.2099e+07 4.62047e+06 4.19279e+06 3.89712e+06 3.76545e+06 3.95587e+06 3.6934e+06 3.98348e+06 3.61436e+06
threshold=304.32500000000005 749.15425000000016 78.241500000000016 1089.1750000000002 465.20850000000002 225.50000000000003 0.66500000000000015 1.0000000180025095e-35 4846.5000000000009 1415.1085000000003 0.025000000000000005 0.46500000000000002 0.52600000000000013 1088.8215000000002 1318.3125000000002 161.69525003909465 131309.50000000003 1.0000000180025095e-35 889.22500000000014 44033.500000000007 0.029500000000000002 1.0000000180025095e-35 0.071500000000000022 369.50000000000006 191.50000000000003 3642.0000000000005 0.25150000000000006 0.83850000000000013 304.32500000000005 96.219099597787206 839.50000000000011
decision_type=10 10 10 10 10 2 10 2 2 10 10 2 2 2 2 8 2 2 10 2 2 2 8 2 2 2 10 2 8 10 2
left_child=2 4 7 -3 -2 15 14 21 18 -5 11 -9 13 -11 16 26 17 30 -8 28 -18 -1 24 -24 -23 -17 -4 -28 -7 -30 -6
right_child=1 3 5 9 6 19 8 10 -10 12 -12 -13 -14 -15 -16 25 20 -19 -20 -21 -22 22 23 -25 -26 -27 27 -29 29 -31 -32
leaf_value=-3.1186587680907589 4.7975852650973998 15.243090921244139 2.9329120732089407 23.193978806260628 4.8555868301334186 1.056265782130005 32.942639076709746 77.458367602032382 18.226714874607023 102.67413987379808 0.61976679398048906 13.920835449617352 27.01290733058757 45.507993422344235 49.988594150543214 7.094686662745497 8.162217339521634 -19.941146413291374 92.468302917480472 -2.1424901804225631 12.395713046752794 7.9070923144393497 14.250800541536941 0.67173265074482724 -2.5834778893672818 17.719266219994495 2.1442483284208511 20.008877240229346 5.0395583835515119 59.973972298882224 15.871929376213641
leaf_count=154754 22043 4898 5540 4517 3686 16474 28 24 590 26 697 402 243 157 36 1012 7585 82 28 5353 3400 396 652 407 10046 524 225 276 33 22 324
internal_value=0 93.0011 -22.448 198.97 65.4142 15.661 89.8063 -29.1553 220.825 245.085 70.2329 175.004 384.47 536.3 84.206 51.0993 83.2134 52.3094 627.055 3.38996 94.7254 -29.8266 -11.5273 90.3203 -21.8564 107.192 36.837 119.858 11.4264 270.133 57.4569
internal_count=244480 47643 196837 9841 37802 29459 15759 167378 646 4943 1123 426 426 183 15113 7577 15077 4092 56 21882 10985 166255 11501 1059 10442 1536 6041 501 16529 55 4010
shrinkage=0.1


Tree=16
num_leaves=32
num_cat=0
split_feature=4 5 0 2 4 31 0 67 0 22 1 0 54 11 78 61 18 9 0 14 34 56 3 15 97 35 1 0 13 1 24
split_gain=4.16302e+08 1.17729e+08 4.23157e+07 1.67e+07 1.41281e+07 1.20247e+07 8.36014e+06 8.3054e+06 7.71141e+06 6.96141e+06 6.27072e+06 6.1266e+06 8.91095e+06 5.65445e+06 5.42646e+06 5.12235e+06 5.07479e+06 5.01371e+06 4.77342e+06 4.71359e+06 4.62313e+06 4.53174e+06 6.28663e+06 4.38444e+06 5.09878e+06 4.33175e+06 3.7836e+06 3.85382e+06 7.21213e+06 3.71277e+06 3.97021e+06
threshold=301.02500000000003 749.15425000000016 78.475000000000009 1149.0725714285716 489.34150000000005 0.25250000000000006 1415.1085000000003 1236.6875000000002 916.17500000000007 0.085500000000000007 999.07500000000016 1288.0085000000001 1170.0000000000002 42.475000000000009 0.06900000000000002 -0.070499999999999993 0.57950000000000002 405.2915000000001 540.37500000000011 435.15850000000006 0.019500000000000003 1704.5000000000002 1.1989214001007631 0.0095000000000000032 132913.50000000003 2192.5000000000005 96.866500000000016 3.9585000000000004 5286.0000000000009 185.93350000000001 0.58650000000000013
decision_type=10 10 8 10 10 10 8 2 10 10 10 8 2 10 2 2 2 10 8 10 10 2 8 2 2 2 8 10 2 10 10
left_child=2 4 26 16 14 13 -5 9 21 17 20 15 -13 -4 23 -11 -3 -6 -15 -16 25 22 -7 24 -2 -8 27 -1 -29 30 -24
right_child=1 3 5 6 7 8 10 -9 -10 11 -12 12 -14 18 19 -17 -18 -19 -20 -21 -22 -23 29 -25 -26 -27 -28 28 -30 -31 -32
leaf_value=-0.49436057910633996 6.4597701719412388 27.717105491823624 -2.0283249994252137 21.222239453410221 1.8815204173322151 58.079797173429419 101.06984736124674 60.108173807205702 37.326772466882481 6.665194399407973 27.786868854657115 83.008388650828408 16.187152239889837 1.0427574056041184 6.0942069210156715 13.856487256133637 13.649344366963811 7.8596521240864181 9.7221153416501664 16.604118167068304 19.249094696044921 3.4461705299398724 60.313886331628879 4.3861756287498981 -4.485119125553215 52.630581817626961 -2.7250987693741058 63.285433365748474 8.1310737137540787 7.7572133422045058 16.035233419912835
leaf_count=752 654 270 6703 3997 1716 27 24 31 77 1616 298 29 64 19447 1336 2559 5102 7689 655 627 30 3341 27 20976 1219 80 163543 26 269 1215 81
internal_value=0 83.191 -20.4346 181.045 58.2906 13.0995 226.506 84.0615 59.3715 82.8893 358.659 116.385 370.239 4.86873 44.0571 110.73 143.564 67.6891 13.2556 94.5117 538.328 54.219 103.115 39.7224 -6.63465 638.089 -26.8674 33.0556 129.921 93.3662 271.049
internal_count=244480 48317 196163 9801 38516 31573 4429 13704 4768 13673 432 4268 93 26805 24812 4175 5372 9405 20102 1963 134 4691 1350 22849 1873 104 164590 1047 295 1323 108
shrinkage=0.1


Tree=17
num_leaves=32
num_cat=0
split_feature=0 0 4 6 14 21 48 30 75 60 4 41 31 66 6 75 89 17 0 64 6 1 0 1 70 57 67 0 2 10 3
split_gain=3.38686e+08 8.05497e+07 4.85962e+07 1.19527e+07 1.06625e+07 1.05277e+07 8.2385e+06 7.08034e+06 1.29002e+07 7.00341e+06 6.49257e+06 6.05426e+06 1.18206e+07 5.62339e+06 5.34605e+06 5.5161e+06 5.21633e+06 4.96726e+06 4.82707e+06 4.63747e+06 4.56964e+06 4.16123e+06 4.05735e+06 7.84874e+06 4.09917e+06 3.88854e+06 3.83983e+06 3.75045e+06 3.63041e+06 3.56907e+06 3.51072e+06
threshold=354.22500000000008 889.22500000000014 110.7915 445.37500000000006 1200.4085000000002 1.0000000180025095e-35 153.50000000000003 0.46500000000000002 0.13050000000000003 223.50000000000003 654.27500000000009 4847.0000000000009 0.17350000000000002 1530.5000000000002 816.09150000000011 0.12950000000000003 2368.5000000000005 252478.00000000003 271.40850000000006 -0.17299999999999996 816.09150000000011 510.42500000000007 8.1915000000000013 234.80850000000004 -0.022499999999999996 0.088500000000000023 1163.3125000000002 354.22500000000008 811.26900000000012 0.7400000000000001 96.219099597787206
decision_type=10 10 10 10 10 2 2 2 2 2 10 2 10 2 10 2 2 2 8 2 10 10 10 10 2 2 2 8 10 10 10
left_child=2 3 5 25 11 22 7 8 -7 16 19 12 -3 -6 15 -13 27 -12 -11 -5 -14 28 -1 24 -24 -2 -21 -4 -17 30 -26
right_child=1 4 9 10 13 6 -8 -9 -10 18 17 14 20 -15 -16 21 -18 -19 -20 26 -22 -23 23 -25 29 -27 -28 -29 -30 -31 -32
leaf_value=-2.6412476545568935 3.7348503731466174 16.173983200557569 3.3112507813277228 4.2703233699327381 20.906792271925838 2.641982759126801 -0.28242045246846192 12.745411151442418 113.60951946735382 -0.065442871210394604 9.768267130569436 -5.0560135907056383 69.333409568842725 45.576968303479646 14.932247765585537 19.246981106698513 11.244809124090617 19.436475901092084 2.7136324013662949 8.2769333784655288 28.524005240979406 7.299859752506018 -2.7406305630319618 -1.6528954233863562 6.9237464817916106 9.6590780077334504 51.11076578810102 34.81956740429527 61.393260559082037 52.519232140887873 25.889333580434325
leaf_count=135827 14445 382 6450 4769 3371 22 715 503 20 15407 5116 294 68 95 3030 112 1003 593 10516 6147 46 508 233 32963 411 1200 21 38 25 22 128
internal_value=0 83.916 -16.4759 61.7379 174.214 -23.2974 67.7724 160.39 554.837 18.4017 80.3899 141.909 246.073 215.83 128.892 62.9644 45.3334 107.725 10.6192 66.1212 528.665 114.71 -23.974 -14.1624 84.085 41.8925 84.2277 34.9579 269.379 130.391 114.276
internal_count=244480 40222 204258 32291 7931 170844 1260 545 42 33414 16646 4465 496 3466 3969 939 7491 5709 25923 10937 114 645 169584 33757 794 15645 6168 6488 137 561 539
shrinkage=0.1


Tree=18
num_leaves=32
num_cat=0
split_feature=2 0 0 2 1 6 32 77 0 33 44 7 41 22 52 3 3 53 24 41 40 0 30 23 1 33 12 11 41 10 41
split_gain=2.74636e+08 8.47863e+07 1.85858e+07 1.49476e+07 1.16037e+07 9.44301e+06 6.30545e+06 6.05931e+06 5.77528e+06 5.35672e+06 5.31301e+06 5.43324e+06 6.06499e+06 5.12122e+06 4.99243e+06 4.96175e+06 4.6563e+06 4.30001e+06 4.288e+06 6.69688e+06 6.20167e+06 4.49672e+06 4.26735e+06 5.51466e+06 5.04881e+06 4.05401e+06 3.78048e+06 3.64229e+06 3.68979e+06 3.45518e+06 6.58926e+06
threshold=271.85235714285716 755.29150000000016 44.708500000000008 1149.0725714285716 241.04150000000001 445.37500000000006 1.0000000180025095e-35 131309.50000000003 1415.1085000000003 0.85750000000000004 0.53850000000000009 0.28700000000000009 4579.5000000000009 -0.010499999999999999 0.023500000000000004 161.69525003909465 137.39383948972937 0.043500000000000004 0.17150000000000001 5310.5000000000009 1011.5000000000001 1096.1500000000003 0.48400000000000004 0.025000000000000005 185.93350000000001 0.76350000000000018 2347.5000000000005 184.50000000000003 5871.5000000000009 0.38600000000000007 4847.0000000000009
decision_type=10 8 8 10 10 10 2 2 8 2 2 8 2 10 2 10 10 2 10 2 2 10 2 2 10 2 2 10 2 10 2
left_child=2 5 -1 7 16 9 13 15 -5 17 11 27 -13 26 25 -3 29 -2 -16 20 21 -20 23 24 -10 -9 -7 -6 -29 -4 -31
right_child=1 3 4 8 10 6 -8 14 22 -11 -12 12 -14 -15 18 -17 -18 -19 19 -21 -22 -23 -24 -25 -26 -27 -28 28 -30 30 -32
leaf_value=-2.2191805996370233 2.8448314021459864 9.2729560452237703 3.5225326229100555 17.30150382171627 -2.0876409498279727 3.3762352715505011 -13.611539958557993 10.698686726418716 49.350298690795903 -2.9585366692123678 2.5728668676379858 30.794078090455798 4.0467104407589316 7.5671199887956933 12.800764084659438 -3.6279536406923265 15.460605712544485 6.2878953068969246 14.089900131452652 17.424961457454554 65.762231308619192 58.653097855660228 21.715389903434392 73.602875276891197 9.8920405945535439 -29.707339683532719 44.021460276064666 2.8580283486070477 -1.3615701747241198 52.288314526989353 8.1323115086279856
leaf_count=158635 20832 929 2387 3956 14405 4530 159 3671 72 1378 5585 99 590 11045 1116 439 467 4392 84 590 60 31 290 41 59 25 23 3764 4611 42 173
internal_value=0 63.1937 -17.75 139.897 4.18515 42.6178 62.0178 110.969 185.371 31.1266 -1.99195 -8.58872 78.8995 64.0375 125.598 51.3297 62.6634 34.4434 167.538 225.206 397.002 261.026 291.17 415.963 315.79 104.254 35.8156 -11.2349 5.34856 46.1617 167.581
internal_count=244480 53722 190758 11363 32123 42359 15757 6945 4418 26602 29054 23469 689 15598 5577 1368 3069 25224 1881 765 175 115 462 172 131 3696 4553 22780 8375 2602 215
shrinkage=0.1


Tree=19
num_leaves=32
num_cat=0
split_feature=4 0 0 21 0 17 8 20 20 54 8 9 62 2 71 55 1 30 52 67 4 17 32 79 29 1 8 12 50 7 2
split_gain=2.2637e+08 4.70502e+07 4.45832e+07 7.49422e+06 7.12895e+06 7.80313e+06 7.11844e+06 7.06428e+06 5.84966e+06 5.25065e+06 5.43219e+06 5.10763e+06 5.84551e+06 5.06049e+06 4.84234e+06 4.60275e+06 4.6738e+06 7.15017e+06 4.57485e+06 4.34199e+06 4.16947e+06 4.08293e+06 3.85115e+06 3.75028e+06 4.02627e+06 3.70127e+06 3.65867e+06 3.65673e+06 3.63938e+06 9.19645e+06 3.95633e+06
threshold=419.05850000000004 90.000000000000014 946.07500000000016 1.0000000180025095e-35 666.8420000000001 253073.50000000003 0.036500000000000012 2370.5000000000005 230.50000000000003 1148.0000000000002 0.71050000000000002 744.19150000000013 0.10000000000000002 267.30128571428583 239370.50000000003 908.50000000000011 564.20850000000007 0.52150000000000019 0.024500000000000004 1136.4375000000002 619.2415000000002 247428.00000000003 1.0000000180025095e-35 218.50000000000003 0.77350000000000019 96.866500000000016 0.223 934.50000000000011 1.0000000180025095e-35 0.071500000000000022 343.39528571428576
decision_type=10 10 8 2 10 2 10 2 2 2 10 8 2 10 2 2 8 2 2 2 10 2 2 2 2 10 10 2 2 8 8
left_child=1 3 4 28 9 21 13 11 15 10 -2 12 -4 -3 20 16 25 -18 -12 22 -11 -6 26 24 -8 -5 -16 -7 30 -30 -1
right_child=2 6 7 8 5 27 23 -9 -10 14 18 -13 -14 -15 19 -17 17 -19 -20 -21 -22 -23 -24 -25 -26 -27 -28 -29 29 -31 -32
leaf_value=-2.0541370551238725 2.613841506972765 -0.55930968265935455 1.4632517748662304 18.67725142969573 1.6405735804461312 17.344666833185855 3.5346097435426453 39.137928374996029 -1.4986981200232052 7.6204468970632178 8.3694492253390234 15.897003823148323 24.566262520551682 2.0361324779538745 4.2456703497020474 60.660224246978764 77.77399153275924 17.287145387785777 64.45756246860212 50.488436471848267 16.154446780945488 8.9588480574324887 -11.979644011186831 2.9235231102062245 12.339555260107915 -3.1506213742467115 9.9995305913939347 41.249428796140776 -1.1569394601012766 8.5426351257091344 -8.3300934748409059
leaf_count=155282 6913 13495 503 121 892 405 1150 123 482 2249 33 5680 140 16945 6349 20 22 175 26 21 768 5245 132 11868 947 217 1338 76 10777 1075 1011
internal_value=0 -11.5397 80.043 -19.1435 60.5362 88.5647 17.4307 154.025 65.6063 50.1322 28.7171 149.407 64.9346 8.85492 63.8842 135.599 117.991 240.42 330.862 50.7833 97.9284 78.9515 49.5637 36.1237 75.109 46.635 52.4719 211.217 -19.6662 -2.77169 -20.9473
internal_count=244480 213587 30893 169182 24447 6618 44405 6446 1037 17829 6972 6323 643 30440 10857 555 535 197 59 7840 3017 6137 7819 13965 2097 338 7687 481 168145 11852 156293
shrinkage=0.1


Tree=20
num_leaves=32
num_cat=0
split_feature=4 5 0 0 8 31 0 4 19 36 9 88 14 54 0 62 61 11 0 82 74 34 32 94 0 49 64 50 3 73 85
split_gain=1.8704e+08 5.00882e+07 1.99661e+07 9.94454e+06 7.05641e+06 5.97068e+06 5.37438e+06 5.36479e+06 4.44666e+06 4.01917e+06 3.85352e+06 3.57552e+06 3.56214e+06 5.87644e+06 3.51826e+06 4.89948e+06 3.76892e+06 3.49017e+06 3.30812e+06 3.70973e+06 3.12717e+06 5.01678e+06 5.71255e+06 4.94969e+06 4.98106e+06 3.45004e+06 3.07408e+06 3.02205e+06 3.38135e+06 6.49104e+06 3.25594e+06
threshold=311.15850000000006 749.15425000000016 61.541500000000006 1384.2750000000003 0.15250000000000002 0.0055000000000000005 859.30850000000009 509.20850000000002 1549.5000000000002 310.24150000000003 400.00850000000008 968.25000000000011 769.43350000000009 1022.5000000000001 1200.2080000000003 0.10000000000000002 -0.070499999999999993 184.50000000000003 732.17500000000007 2.5000000000000004 1.0000000180025095e-35 0.020500000000000004 1.0000000180025095e-35 0.11850000000000002 164.22500000000002 616.50000000000011 -0.020499999999999997 1.0000000180025095e-35 3.8172308173413847 239170.50000000003 0.014500000000000001
decision_type=10 10 8 8 8 10 10 10 2 8 10 2 10 2 8 2 2 10 8 2 2 10 2 2 10 2 2 2 8 2 2
left_child=2 5 -1 11 17 10 20 -7 -5 -8 -2 -3 13 -13 16 26 -9 -4 -19 -20 27 22 -22 24 -24 -23 -16 28 29 -6 -29
right_child=1 3 4 8 6 7 9 14 -10 -11 -12 12 -14 -15 15 -17 -18 18 19 -21 21 25 23 -25 -26 -27 -28 30 -30 -31 -32
leaf_value=-1.7977803801659236 1.5846589985311079 8.5961575631832012 -1.1112378457328225 17.345295828779069 1.1751493507256245 4.162890873049939 40.307986720640272 4.1889107206373275 36.338463527994946 -7.3840538024902349 4.1953817889413445 79.402725147065667 12.393882826561274 16.366291025161743 0.67560552084256731 57.907534119577122 9.936802376989851 0.93065072544435812 50.476922198136648 8.7642177933173659 9.0246386097783748 1.3731048354121371 91.175355224609376 -2.0279096983946285 31.59073789880631 14.29137843059368 40.498125239780975 23.316155153629829 -0.6129679981768521 55.190278244018558 4.393589210243527
leaf_count=161933 10185 4338 13034 1684 73 8672 67 1794 133 24 12708 21 3628 50 63 33 3133 15525 24 191 940 1834 20 26 47 233 28 102 3067 32 838
internal_value=0 57.2569 -13.2381 120.543 8.03619 40.2255 35.7966 56.7186 187.355 277.299 30.3388 105.438 128.28 350.109 82.6259 248.989 78.439 0.990439 11.0126 134.205 32.7494 56.7318 113.637 350.059 493.772 28.293 129.287 14.6692 -0.0885815 176.369 64.4689
internal_count=244480 46470 198010 9854 36077 36616 7303 13723 1817 91 22893 8037 3699 71 5051 124 4927 28774 15740 215 7212 3100 1033 93 67 2067 91 4112 3172 105 940
shrinkage=0.1


Tree=21
num_leaves=32
num_cat=0
split_feature=6 4 0 0 8 0 17 1 26 37 18 43 61 41 6 2 58 13 9 75 10 12 13 75 44 43 16 1 66 3 55
split_gain=1.51736e+08 3.06477e+07 3.05176e+07 6.87804e+06 6.38894e+06 5.90831e+06 5.14524e+06 4.34066e+06 4.20904e+06 3.92613e+06 3.70204e+06 3.55791e+06 3.5349e+06 5.62142e+06 3.48066e+06 3.46375e+06 3.24875e+06 3.08433e+06 2.92993e+06 3.70098e+06 2.65122e+06 3.77251e+06 3.23797e+06 2.63257e+06 2.61503e+06 3.01378e+06 2.58716e+06 2.4684e+06 2.42748e+06 2.39941e+06 2.39561e+06
threshold=404.24150000000003 69.533500000000018 946.07500000000016 574.27500000000009 0.018500000000000006 1384.2750000000003 247428.00000000003 61.741500000000009 2374.0000000000005 166.50000000000003 0.57950000000000002 -1.0000000180025095e-35 -0.094499999999999987 15614.500000000002 936.20850000000007 262.75485714285725 234.25000000000003 5286.0000000000009 744.19150000000013 0.12800000000000003 0.90000000000000013 698.50000000000011 5286.0000000000009 0.13700000000000004 0.27350000000000002 0.045000000000000005 1419.5000000000002 1090.0250000000003 974.50000000000011 92.583373904052451 761.50000000000011
decision_type=10 10 8 10 10 8 2 8 2 2 2 2 2 2 10 10 2 2 8 2 10 2 2 2 2 2 2 10 2 10 2
left_child=1 7 3 12 15 18 -5 -1 -7 17 11 14 13 -2 -8 24 -14 30 19 -4 -11 22 -22 -21 25 -3 -17 -18 -10 -15 -6
right_child=2 4 5 6 9 8 10 -9 28 20 -12 -13 16 29 -16 26 27 -19 -20 23 21 -23 -24 -25 -26 -27 -28 -29 -30 -31 -32
leaf_value=7.8989819917263437 1.056227205264584 -1.7077673158349063 -7.6083221916772459 1.6165527012081093 16.823231146552345 15.988141144483443 14.392727103905521 -1.6143684966546386 67.476456022262582 2.4177817711990386 7.2896179651934068 -16.304574307974647 11.198355897046579 3.949079504495935 39.390962608398929 1.4670138883543009 4.4821069798505846 6.9597650584333657 11.454884023126588 20.040646385312915 44.85459789607836 -17.098145294189454 10.071835024654867 1.5029708782831828 1.7478068311980348 7.6354530340650175 37.456130889058116 -5.9648086056627081 29.073870291761171 26.014512627361388 52.465896336237591
leaf_count=481 5745 10479 191 1546 88 1843 548 166085 20 14158 7789 34 719 79 62 15824 9004 998 3996 143 46 27 64 165 3489 357 20 232 93 131 24
internal_value=0 -9.58183 63.9516 48.6174 13.3967 125.49 69.1984 -15.869 171.368 29.966 78.9208 151.787 35.7087 16.4364 169.335 4.936 47.2372 87.2565 105.527 33.2788 25.5175 163.961 246.174 101.097 -6.3328 -13.9995 15.1244 42.1969 358.708 177.137 244.609
internal_count=244480 212140 32340 25889 45574 6451 9979 166566 1956 15405 8433 644 15910 5955 610 30169 9955 1110 4495 499 14295 137 110 308 14325 10836 15844 9236 113 210 112
shrinkage=0.1


Tree=22
num_leaves=32
num_cat=0
split_feature=0 0 4 0 39 9 37 17 26 1 54 8 66 12 20 77 76 30 0 52 75 83 59 6 33 1 0 4 26 20 36
split_gain=1.24424e+08 2.76622e+07 1.81208e+07 7.6831e+06 4.70772e+06 4.76157e+06 4.01538e+06 4.41426e+06 4.00232e+06 3.39134e+06 3.34904e+06 3.21393e+06 3.99061e+06 3.66784e+06 3.07869e+06 2.93062e+06 2.89702e+06 2.7943e+06 2.78915e+06 2.76411e+06 2.70937e+06 2.87664e+06 2.69311e+06 2.58661e+06 2.53522e+06 2.4791e+06 3.00499e+06 2.44631e+06 2.36985e+06 2.43449e+06 2.39806e+06
threshold=358.70850000000002 732.17500000000007 69.533500000000018 1288.0085000000001 0.18450000000000003 555.32500000000016 560.50000000000011 253073.50000000003 2374.0000000000005 61.741500000000009 2611.5000000000005 0.13050000000000003 373.50000000000006 1205.5000000000002 1530.5000000000002 131309.50000000003 1072.0000000000002 0.53450000000000009 0.67500000000000016 0.012500000000000002 0.12450000000000001 11.000000000000002 0.10950000000000001 1.5085000000000002 0.60150000000000003 132.97500000000002 132.35850000000002 509.20850000000002 338.50000000000006 244.50000000000003 899.17500000000007
decision_type=10 10 10 10 10 10 2 2 2 8 2 10 2 2 2 2 2 2 10 2 2 2 2 10 2 10 8 10 2 2 10
left_child=2 11 9 6 -4 22 15 -8 23 -1 18 12 16 -14 -9 24 -2 -12 -7 -13 -17 -22 25 -5 -3 26 -6 -24 29 -25 -30
right_child=1 3 4 8 5 10 7 14 -10 -11 17 19 13 -15 -16 20 -18 -19 -20 -21 21 -23 27 28 -26 -27 -28 -29 30 -31 -32
leaf_value=7.0504829311244528 0.44831672344235279 -2.3192918412214101 -0.019980075020128146 -12.989390627543131 6.9149246030383642 43.701944899559024 8.0165279256473916 16.187969232070383 31.675786208269887 -1.4560227682243374 -5.2954265518188484 -0.79510592664865887 4.0310703659563805 19.329417174867118 54.478794253956188 -8.7731245133934959 3.780437091796141 31.9740354852769 5.7516556403762777 6.5620997324189849 -4.2113827259670487 8.6287431142219813 3.2712088437827846 19.965789309751642 -35.935331662495933 0.8337869483620528 41.228071905771891 12.80803722905946 2.9437221595116201 56.612010487643161 13.208810469572866
leaf_count=470 7583 344 21320 39 171 20 6374 461 114 165820 25 578 10923 159 22 123 3978 103 611 4383 205 1172 4517 103 24 11488 30 286 248 22 2764
internal_value=0 51.4297 -9.79023 91.4809 9.73795 22.0197 75.9527 87.1497 132.661 -14.3198 99.463 33.9969 28.9462 42.5056 179.321 34.851 15.9486 246.948 69.5452 57.0492 54.4697 67.1718 18.4556 126.053 -45.1164 10.2642 120.363 38.3909 129.235 264.155 123.636
internal_count=244480 39619 204861 12015 38571 17251 8725 6857 3290 166290 759 27604 22643 11082 483 1868 11561 128 631 4961 1500 1377 16492 3176 368 11689 201 4803 3137 125 3012
shrinkage=0.1


Tree=23
num_leaves=32
num_cat=0
split_feature=4 0 4 0 0 0 8 22 61 17 15 15 62 82 12 86 49 53 28 16 71 3 32 58 28 96 1 5 27 11 77
split_gain=1.01879e+08 2.79453e+07 9.8417e+06 7.59484e+06 6.0354e+06 4.5411e+06 4.50527e+06 3.66683e+06 3.77579e+06 3.45059e+06 3.35858e+06 3.55359e+06 4.35279e+06 3.88337e+06 4.23031e+06 3.34786e+06 3.15271e+06 3.06673e+06 2.98793e+06 2.95425e+06 2.77422e+06 2.80883e+06 2.66591e+06 2.62952e+06 2.53645e+06 2.89818e+06 2.5131e+06 3.57573e+06 3.17567e+06 2.43371e+06 5.53389e+06
threshold=295.50000000000006 916.17500000000007 21.291500000000003 776.31650000000013 589.09150000000011 1384.2750000000003 0.018500000000000006 0.66600000000000015 -0.027499999999999997 247428.00000000003 0.12750000000000003 0.0095000000000000032 0.088000000000000009 60.000000000000007 1216.5000000000002 0.044500000000000005 217.50000000000003 0.039500000000000007 1530.5000000000002 630.50000000000011 252487.50000000003 166.59857310804415 1.0000000180025095e-35 1167.7500000000002 245.50000000000003 516.32150000000013 216.82500000000002 1.8540000000000003 0.12550000000000003 986.09150000000011 137877.00000000003
decision_type=10 8 10 8 10 8 10 10 2 2 2 2 2 2 2 10 2 2 2 2 2 10 2 2 2 2 10 10 10 8 2
left_child=2 4 26 6 10 -3 -4 -5 -9 -6 11 12 -2 24 17 -11 20 -15 22 -19 -8 -22 29 -20 -13 -26 27 -1 -29 30 -7
right_child=1 5 3 7 9 18 16 8 -10 15 -12 13 -14 14 -16 -17 -18 19 23 -21 21 -23 -24 -25 25 -27 -28 28 -30 -31 -32
leaf_value=-0.43896653385750473 4.4140639100689443 8.2597968521445839 -0.45299741651447545 9.8592957902884653 0.671144028678482 17.451973773778413 4.1672719522745929 71.039670264202627 21.762152677774431 4.5351282371240433 -4.7227589682742623 6.1851572156473518 -4.7546971912997629 3.2979104864984268 25.176927172987149 8.7543255855475373 1.0879899468240617 6.080302296747834 62.095038642883303 16.355735287724471 7.7592842151884174 33.122544793521655 -22.569754954746791 22.502138579808751 0.80816269493522186 3.3044047667649559 -1.4758420837475423 10.713330231976983 -1.3605432192340148 11.937992981967577 67.454824188232422
leaf_count=5039 832 5297 30292 141 1369 193 1913 23 48 5066 642 1430 1371 6546 99 2991 11062 1904 20 328 122 68 21 104 11471 7823 145667 594 344 1635 25
internal_value=0 40.804 -10.1245 3.10352 30.853 97.9212 2.18241 191.918 377.253 53.1275 24.3819 25.8274 -12.9196 28.7111 46.2118 61.0142 17.6273 43.8935 138.545 75.9031 53.1191 168.367 128.598 288.881 21.2148 18.203 -13.9338 6.16319 62.8539 132.613 231.862
internal_count=244480 49167 195313 43669 41872 7295 43457 212 71 9426 32446 31804 2203 29601 8877 8057 13165 8778 1998 2232 2103 190 1874 124 20724 19294 151644 5977 938 1853 218
shrinkage=0.1


Tree=24
num_leaves=32
num_cat=0
split_feature=21 0 49 0 59 86 76 57 6 5 34 22 13 88 57 52 70 6 71 6 41 26 28 10 3 4 9 62 6 3 7
split_gain=8.35124e+07 2.63402e+07 9.70813e+06 8.65589e+06 6.21699e+06 4.59428e+06 4.48744e+06 4.37747e+06 3.79573e+06 3.76486e+06 3.68206e+06 6.15867e+06 9.13898e+06 4.28301e+06 3.52573e+06 3.48984e+06 6.09275e+06 5.82011e+06 3.38151e+06 3.3135e+06 3.058e+06 2.92912e+06 2.86348e+06 3.12358e+06 2.69772e+06 2.6104e+06 2.52733e+06 3.69527e+06 3.59322e+06 2.69572e+06 3.19462e+06
threshold=1.0000000180025095e-35 995.38350000000003 595.50000000000011 40.541500000000006 0.10750000000000003 0.025500000000000005 951.50000000000011 0.06900000000000002 415.32500000000005 318.27500000000003 0.015500000000000002 0.87650000000000017 4846.5000000000009 591.25000000000011 -0.049499999999999995 0.027500000000000004 -0.08649999999999998 392.48350000000005 251109.50000000003 610.07500000000016 10307.500000000002 256.50000000000006 1530.5000000000002 -0.85499999999999987 59.471670179304915 854.29150000000016 765.20850000000007 0.10000000000000002 555.17500000000007 140.55282654752315 0.052500000000000012
decision_type=2 8 2 10 2 10 2 2 10 8 10 10 2 2 2 2 2 10 2 8 2 2 2 10 10 10 8 2 8 10 10
left_child=3 2 5 -1 10 -2 19 -4 -7 14 11 25 13 -13 -3 16 -12 20 -10 -6 -17 -14 26 -24 -18 -5 27 -11 -28 -29 -31
right_child=1 9 7 4 6 8 -8 -9 18 22 15 12 21 -15 -16 17 24 -19 -20 -21 -22 -23 23 -25 -26 -27 28 29 -30 30 -32
leaf_value=-1.2467334171720781 1.0395605098103147 65.989461216330525 4.7779795283517439 1.6336942432183488 0.12301942457084634 2.0158864072786904 4.1913740872972136 12.190364088289947 4.4575846691708572 -1.9041653398632736 2.4016480420853732 93.437555541992197 33.316040649414063 32.847502020427157 19.52427219915926 -1.7408196574597405 -1.0841923287846185 12.235503807949694 11.589328176791678 24.782485707456416 4.4330256582224665 -6.8766907605257899 -6.6479715973138811 27.786831782808243 -4.3576367763032087 -24.692751156656367 49.95254259976474 48.959971545991444 9.4570907306711653 4.9244341824405886 47.877345237731937
leaf_count=159539 21509 20 9829 4256 5880 7397 6247 867 4225 447 2558 20 25 28 89 2731 4209 438 789 55 1136 66 32 149 6265 38 22 21 5444 129 20
internal_value=0 36.1095 27.5194 -9.38184 5.11677 19.2361 23.2063 53.7882 34.5571 96.2468 -5.00572 20.7133 227.879 580.934 280.5 -11.582 -19.7365 13.1031 55.7983 3.5154 0.728572 41.6527 93.0406 216.989 -30.422 14.0072 89.3525 28.6839 96.2008 154.174 106.899
internal_count=244480 50989 44616 193491 33952 33920 12182 10696 12411 6373 21770 4433 139 48 109 17337 13032 4305 5014 5935 3867 91 6264 181 10474 4294 6083 617 5466 170 149
shrinkage=0.1


Tree=25
num_leaves=32
num_cat=0
split_feature=4 5 6 58 12 55 71 8 93 13 23 71 21 1 80 27 46 75 67 44 13 47 2 8 13 35 94 4 56 58 50
split_gain=6.78154e+07 1.73243e+07 6.65066e+06 5.36217e+06 4.89507e+06 3.22901e+06 3.56803e+06 2.99804e+06 3.06017e+06 5.73448e+06 2.89653e+06 2.82444e+06 2.63789e+06 5.23206e+06 6.26058e+06 3.49695e+06 2.58688e+06 3.58511e+06 2.54811e+06 2.2541e+06 2.3604e+06 3.00513e+06 2.89946e+06 2.77233e+06 5.70577e+06 2.36514e+06 2.6447e+06 2.1422e+06 2.06603e+06 2.59753e+06 2.02501e+06
threshold=295.50000000000006 655.42500000000007 18.858500000000003 221.75000000000003 919.50000000000011 583.50000000000011 252487.50000000003 0.10750000000000003 1.0000000180025095e-35 4846.5000000000009 1.0000000180025095e-35 253964.50000000003 1.0000000180025095e-35 1066.1500000000003 2822.5000000000005 0.031500000000000007 712.75000000000011 0.12950000000000003 1236.6875000000002 0.43550000000000005 5725.5000000000009 0.018500000000000006 857.21078571428586 0.9195000000000001 4846.5000000000009 604.50000000000011 0.12300000000000001 1391.1415000000002 4790.5000000000009 611.75000000000011 1.0000000180025095e-35
decision_type=10 10 10 2 2 2 2 10 2 2 2 2 2 8 2 8 2 2 2 2 2 10 10 10 2 2 2 10 2 2 2
left_child=2 7 12 5 -3 -4 -7 18 10 -10 11 -9 -1 -14 15 -15 17 -6 27 20 21 23 -22 25 -25 -5 -27 -2 29 -11 -23
right_child=1 4 3 19 16 6 -8 8 9 28 -12 -13 13 14 -16 -17 -18 -19 -20 -21 22 30 -24 24 -26 26 -28 -29 -30 -31 -32
leaf_value=-1.1857152658743979 1.7712057642964447 4.5217725446970549 1.884584263987922 -0.066815692562333967 42.797194753646856 6.1997890138124632 22.994897484450505 5.1118246680772064 51.048759518247664 3.0541387128951469 1.8334398011764155 17.817709610638797 0.80296902476441456 74.597113538671422 5.9699162729670494 22.693842803955079 8.2465731659040937 -0.48685545382961148 29.959698748588565 1.6913369801171918 -1.1760435455373728 -1.5942338374045073 32.240243941086987 63.154192681746053 5.4910373947559261 4.8134064701466333 -0.15444646762421108 -14.615537774562837 20.726912481935177 23.843441392805268 4.5621702016952135
leaf_count=148466 28571 6143 2429 5022 50 991 145 2354 33 466 4497 189 642 27 89 25 6314 31 32 6067 19724 6517 26 22 78 3030 1658 80 111 69 582
internal_value=0 33.3194 -8.30391 2.16791 65.378 39.4275 83.4353 22.2774 39.7713 103.884 33.5877 60.5615 -11.5518 46.3384 220.765 496.436 84.7438 262.317 17.5695 -0.940982 -3.89585 4.77631 -11.3205 16.1169 181.769 14.4109 30.5643 17.2545 83.1132 57.3538 -10.8951
internal_count=244480 48940 195540 46291 12538 3565 1136 36402 7719 679 7040 2543 149249 783 141 52 6395 81 28683 42726 36659 16909 19750 9810 100 9710 4688 28651 646 535 7099
shrinkage=0.1


Tree=26
num_leaves=32
num_cat=0
split_feature=21 0 84 4 81 34 10 65 16 8 10 11 2 11 2 44 85 13 2 3 17 70 52 3 28 59 22 19 19 12 45
split_gain=5.57066e+07 1.73524e+07 6.67752e+06 5.99849e+06 5.04436e+06 3.9438e+06 5.07433e+06 4.84853e+06 4.11227e+06 3.47869e+06 3.34713e+06 3.32929e+06 3.14732e+06 3.0395e+06 2.85058e+06 2.63821e+06 2.6408e+06 2.51304e+06 2.39937e+06 2.31809e+06 2.2844e+06 3.19392e+06 2.69332e+06 2.28003e+06 2.52659e+06 2.77571e+06 2.23192e+06 2.12296e+06 3.41121e+06 2.01085e+06 3.01162e+06
threshold=1.0000000180025095e-35 1096.1500000000003 575.50000000000011 13.441500000000001 -0.025499999999999998 0.019500000000000003 0.90000000000000013 0.092500000000000013 595.50000000000011 0.55500000000000005 0.7400000000000001 597.16650000000016 406.72271428571429 46.891500000000008 425.41192857142863 -0.063499999999999987 0.13150000000000003 5368.5000000000009 79.8202142857143 243.78046395458691 249248.50000000003 0.012500000000000002 0.020500000000000004 22.2267087266267 642.50000000000011 0.099500000000000019 0.45750000000000007 986.50000000000011 935.50000000000011 769.50000000000011 45058.000000000007
decision_type=2 8 2 10 2 10 10 2 2 10 10 8 8 10 10 2 2 2 10 8 2 2 2 10 2 2 10 2 2 2 2
left_child=3 2 10 14 9 6 13 15 -8 11 29 -4 19 -5 -1 -7 18 -11 -17 -3 21 -15 -22 -6 -25 -26 -23 28 -27 -2 -31
right_child=1 12 4 5 23 7 8 -9 -10 17 -12 -13 -14 20 -16 16 -18 -19 -20 -21 22 26 -24 24 25 27 -28 -29 -30 30 -32
leaf_value=-1.0847321246895754 1.3351612589571151 60.041564064025877 0.7589326534301688 -0.41940580714104592 3.1438931978499518 4.5392843393654365 49.161443228721623 1.4079847445011271 -5.4855350993928456 26.570398352730951 11.990086374204667 4.5729967610035409 7.9265694006286971 -0.83668440413054646 -22.031048721900355 -0.72302530585870228 5.3139906655031703 6.9291202737029494 -2.8425017168870355 13.002015200528232 5.9182394319488454 3.224518881103954 -0.32430762549535741 6.1779815683944728 6.1808605884250847 18.782441376142142 15.011673985413143 -2.0048417889553569 60.905815615318716 4.9132781278523519 33.679056004474042
leaf_count=144814 32076 20 3739 5450 500 779 40 10353 21 106 305 5900 5694 3098 65 13703 575 169 8753 22 2904 1958 907 626 266 496 175 46 20 862 38
internal_value=0 29.4685 22.8864 -7.7135 43.2518 1.88583 15.6714 -3.98663 303.485 34.0991 15.6241 30.9351 81.2775 14.4599 -10.9413 -11.8422 -13.7782 144.999 -15.4916 354.018 25.7034 12.1365 44.3254 89.6902 109.722 145.967 41.9159 185.8 204.151 14.6597 61.2783
internal_count=244480 50885 45149 193595 11868 48716 14553 34163 61 9914 33281 9639 5736 14492 144879 23810 23031 275 22456 42 9042 5231 3811 1954 1454 828 2133 562 516 32976 900
shrinkage=0.1


Tree=27
num_leaves=32
num_cat=0
split_feature=6 11 4 78 8 0 15 56 8 20 20 37 0 97 10 50 23 56 15 74 36 19 64 3 54 36 87 87 7 16 58
split_gain=4.5586e+07 9.6751e+06 8.3539e+06 3.80558e+06 3.57947e+06 3.43564e+06 3.11377e+06 3.11981e+06 3.23283e+06 3.18254e+06 3.05191e+06 2.98615e+06 2.88442e+06 2.84572e+06 2.76609e+06 4.16934e+06 2.83311e+06 2.63622e+06 3.85144e+06 4.83853e+06 5.03613e+06 2.577e+06 2.29512e+06 2.22569e+06 2.2067e+06 2.29388e+06 2.28322e+06 2.199e+06 2.85462e+06 2.78481e+06 2.19221e+06
threshold=421.07500000000005 58.491500000000009 654.27500000000009 0.088000000000000009 -0.083499999999999991 1384.2750000000003 0.0085000000000000023 3642.0000000000005 0.029500000000000002 646.50000000000011 714.50000000000011 176.50000000000003 1384.2750000000003 149850.50000000003 0.067500000000000018 1.0000000180025095e-35 0.70850000000000013 1704.5000000000002 0.024500000000000004 1.0000000180025095e-35 10.358500000000001 1549.5000000000002 -0.17299999999999996 54.749129335472212 2408.5000000000005 431.97500000000008 0.077500000000000013 0.062500000000000014 -0.11449999999999999 503.50000000000006 230.75000000000003
decision_type=10 10 8 2 10 8 2 2 10 2 2 2 8 2 8 2 2 2 2 2 8 2 2 10 2 8 2 2 10 2 2
left_child=1 14 5 6 -4 22 13 9 -9 -8 -7 -10 24 -3 -1 17 -17 18 19 -16 -21 -14 -2 -13 26 -26 27 -6 29 -29 -24
right_child=2 3 4 -5 12 10 7 8 11 -11 -12 23 21 -15 15 16 -18 -19 -20 20 -22 -23 30 -25 25 -27 -28 28 -30 -31 -32
leaf_value=-0.95245240207887183 0.65581348228029124 0.69000558218344532 1.2241411755868428 5.0997055672435359 4.7860277758271463 9.0879709398045261 -0.22402972789055414 1.1393214332000416 13.8292982695377 2.1272573053336283 58.317818031311042 0.48002030135658774 8.8375347396595672 -3.7007436734538284 7.0879447686335739 18.113360894336257 4.3181480947912725 -1.1033088839120038 -0.12676480677392749 66.691731913884482 13.307269204217334 24.84006626271756 8.7721840729904184 6.1034776987912513 19.032554654664889 7.3517034236203278 -1.1936235514357072 52.545398876584812 7.0731675690287474 16.658027229870068 2.650336678371227
leaf_count=159695 6864 2827 1724 1907 7095 34 23511 6958 339 7623 20 1150 1691 3089 372 215 484 3475 720 30 43 107 625 1814 186 1749 605 29 286 85 9128
internal_value=0 -5.10617 36.3768 7.19907 54.8117 21.3855 5.43367 8.50059 23.6227 3.51671 273.212 49.385 61.0139 -16.0259 -8.77596 13.6145 85.6131 2.76813 43.9348 117.071 352.461 97.8985 20.5671 39.2164 54.4052 84.7451 47.1573 51.9273 124.067 257.873 30.4264
internal_count=244480 214252 30228 49218 13557 16671 47311 41395 10261 31134 54 3303 11833 5916 165034 5339 699 4640 1165 445 73 1798 16617 2964 10035 1935 8100 7495 400 114 9753
shrinkage=0.1


Tree=28
num_leaves=32
num_cat=0
split_feature=0 6 6 8 58 9 17 12 8 18 85 0 26 62 15 23 97 55 1 12 9 35 71 47 0 33 65 56 33 75 1
split_gain=3.76001e+07 7.97919e+06 5.48412e+06 3.75688e+06 3.71401e+06 3.36125e+06 3.14466e+06 3.72752e+06 3.16423e+06 4.73202e+06 2.76301e+06 2.48578e+06 2.19889e+06 2.23973e+06 2.52251e+06 2.35581e+06 2.39422e+06 2.16001e+06 2.23093e+06 2.1339e+06 1.96649e+06 1.96373e+06 1.89565e+06 1.88315e+06 2.66956e+06 5.12002e+06 1.97556e+06 2.05838e+06 2.27452e+06 2.21409e+06 1.80465e+06
threshold=358.70850000000002 700.25850000000003 21.9085 -0.083499999999999991 238.25000000000003 514.62500000000011 247813.00000000003 839.50000000000011 0.71050000000000002 2.1885000000000008 0.12750000000000003 1415.1085000000003 2374.0000000000005 0.097000000000000017 0.0085000000000000023 0.94150000000000011 183574.50000000003 471.50000000000006 324.85850000000011 326.50000000000006 146.04150000000001 657.50000000000011 256122.00000000003 0.018500000000000006 358.70850000000002 0.51450000000000007 0.022500000000000003 2232.5000000000005 0.83450000000000013 0.13550000000000004 256.19150000000008
decision_type=10 10 10 10 2 10 2 2 10 2 2 10 2 2 2 2 2 2 10 2 8 2 2 10 8 2 2 2 2 2 8
left_child=2 6 -1 -3 5 17 7 19 10 -10 12 20 13 15 -15 21 -17 -4 22 -2 -5 -8 -19 26 -25 -26 27 -6 -29 -30 -16
right_child=1 3 4 11 23 -7 8 -9 9 -11 -12 -13 -14 14 30 16 -18 18 -20 -21 -22 -23 -24 24 25 -27 -28 28 29 -31 -32
leaf_value=-0.850392660939705 -4.5721584618677342 0.36842639366703112 0.048793026197906833 23.342356986999512 -1.628502701679384 12.389920464938797 2.3831951752731655 10.94233052775887 7.1026946419553543 45.349539986778709 8.8490823828146468 12.790839966538149 32.199358546733855 -8.429557039778107 13.531775712966914 -7.2743325214903312 8.3306485424283903 5.9148444435103809 -0.94702793851166089 0.28039908947417608 5.1851816242550486 5.4854700366630835 27.455287845361802 -0.80268129888232087 51.981913048880443 -0.712788642777337 1.7011633457373709 -0.28028578769304402 0.22065049424728345 4.4303556630876262 0.80714936690235428
leaf_count=151367 1361 1564 2165 60 5675 355 9947 263 666 34 596 462 24 295 113 424 128 1499 544 2712 10163 2567 42 18464 28 54 10072 9681 2474 2524 8157
internal_value=0 28.256 -5.42635 49.4597 3.26851 30.4199 18.7378 -5.96041 23.4039 89.604 21.3213 56.16 19.4726 19.137 6.56893 27.3755 -36.5579 22.6116 45.5841 -13.4109 52.9175 30.1957 65.0193 0.715372 -7.22728 172.805 5.55677 -0.111571 6.1412 23.4656 9.81017
internal_count=244480 39536 204944 12249 53577 4605 27287 4336 22951 700 22251 10685 21655 21631 8565 13066 552 4250 2085 4073 10223 12514 1541 48972 18546 82 30426 20354 14679 4998 8270
shrinkage=0.1


Tree=29
num_leaves=32
num_cat=0
split_feature=21 0 16 6 8 50 71 92 71 74 34 88 10 16 2 9 13 73 6 18 3 44 94 3 59 59 10 60 31 33 2
split_gain=3.13296e+07 1.01547e+07 4.03991e+06 3.60611e+06 4.21308e+06 5.02674e+06 5.99443e+06 3.28986e+06 3.15191e+06 8.03999e+06 7.61621e+06 3.50954e+06 2.90165e+06 2.79745e+06 2.6836e+06 2.5634e+06 2.38652e+06 2.36328e+06 2.85755e+06 2.33481e+06 2.32684e+06 2.20712e+06 2.44802e+06 2.11154e+06 2.1075e+06 2.05302e+06 2.12626e+06 2.025e+06 2.84717e+06 2.0026e+06 1.95284e+06
threshold=1.0000000180025095e-35 1096.1500000000003 486.50000000000006 2.0415000000000005 0.15450000000000003 1.0000000180025095e-35 252487.50000000003 -0.10149999999999999 239370.50000000003 1.0000000180025095e-35 0.018500000000000006 583.25000000000011 0.99500000000000011 221.50000000000003 324.44407142857148 99.791499999999999 5368.5000000000009 239170.50000000003 167.64200000000002 2.1780000000000004 57.978469119182911 0.40550000000000003 0.11850000000000002 384.50717065281327 0.10850000000000003 0.1115 0.021500000000000005 272.50000000000006 0.082500000000000004 0.58850000000000013 79.8202142857143
decision_type=2 8 2 10 10 2 2 2 2 2 10 2 10 2 8 10 2 2 8 2 10 2 2 10 2 2 10 2 10 2 8
left_child=3 2 13 30 21 8 25 -4 9 -6 11 -11 16 17 -3 -13 -9 24 -19 -14 -18 23 -23 -5 -2 26 -7 -22 -29 -28 -1
right_child=1 14 7 4 5 6 -8 12 -10 10 -12 15 19 -15 -16 -17 20 18 -20 -21 27 22 -24 -25 -26 -27 29 28 -30 -31 -32
leaf_value=-0.88158886823171534 0.44109374463444739 36.516240244898306 1.7220032614626772 -0.55779580291071718 1.2830039494686267 0.09324112126477313 19.138317911014525 2.5979365285491838 -0.73656871276449587 58.798993063491324 6.8440669943697205 34.737046213150023 11.91235315983112 0.56318488672569267 6.019024887831403 -5.8572802770705454 2.7306584381278922 21.160504825909936 5.4612460803778982 46.897294185779714 1.8989593930397093 1.8869253832613297 -2.1202848256270075 -11.034777012451944 5.7820319690189121 10.79687313169241 3.6363772845827045 7.1594299287656344 16.117846395111371 15.870782145984629 -3.8834836958711167
leaf_count=111599 2167 29 9747 58504 2793 1223 291 3821 6049 46 259 60 65 24107 5707 21 1203 144 595 27 410 7416 1919 193 1121 360 464 1246 496 188 2210
internal_value=0 22.099 17.0637 -5.78515 -0.630528 16.8518 56.3782 29.2273 6.0322 31.5257 166.803 367.399 45.3301 9.70739 61.7321 242.126 43.0677 34.1049 85.2037 221.797 62.5295 -3.65099 10.6316 -5.92245 22.6202 38.8004 25.5201 82.2197 97.1016 71.6409 -9.39881
internal_count=244480 50885 45149 193595 79786 11754 2526 17015 9228 3179 386 127 7268 28134 5736 81 7176 4027 739 92 3355 68032 9335 58697 3288 2235 1875 2152 1742 652 113809
shrinkage=0.1


Tree=30
num_leaves=32
num_cat=0
split_feature=4 12 11 1 50 27 3 22 68 62 0 57 36 65 9 35 17 96 17 79 59 20 12 74 27 29 0 27 15 3 82
split_gain=2.57288e+07 4.9399e+06 4.79454e+06 3.23831e+06 5.24685e+06 3.52427e+06 2.95658e+06 2.93137e+06 2.62286e+06 4.11203e+06 2.53769e+06 2.61909e+06 2.80235e+06 2.44181e+06 2.40711e+06 2.66551e+06 2.38409e+06 4.05684e+06 2.34993e+06 5.18036e+06 2.34673e+06 2.12572e+06 2.08219e+06 2.02012e+06 2.67651e+06 2.1628e+06 1.88828e+06 1.88222e+06 1.73853e+06 1.66884e+06 1.6371e+06
threshold=419.05850000000004 775.50000000000011 261.59150000000005 216.82500000000002 1.0000000180025095e-35 0.081500000000000003 384.50717065281327 -0.017499999999999998 1.0000000180025095e-35 0.090500000000000011 1288.0085000000001 0.043000000000000003 404.44150000000008 -0.0074999999999999989 439.70850000000002 339.50000000000006 247428.00000000003 297.60700000000003 253073.50000000003 476.50000000000006 0.10450000000000002 800.50000000000011 376.50000000000006 1.0000000180025095e-35 0.13950000000000004 0.75350000000000017 4.658500000000001 0.088500000000000023 0.12850000000000003 4.8986661380041356 256.50000000000006
decision_type=10 2 10 10 2 10 10 10 2 2 8 2 10 2 8 2 2 2 2 2 2 2 2 2 8 2 10 10 2 10 2
left_child=2 7 3 4 8 -6 10 -2 23 -10 11 28 -13 -12 15 -3 22 -18 26 -20 -17 27 29 -1 25 -25 -16 -21 30 -9 -4
right_child=1 14 6 -5 5 -7 -8 16 9 -11 13 12 -14 -15 18 20 17 -19 19 21 -22 -23 -24 24 -26 -27 -28 -29 -30 -31 -32
leaf_value=-0.45206098229922126 -0.28751643422079964 34.331171690899389 0.82882723009697301 -0.66229806292893845 17.438749499743569 2.5609676879682359 -9.3989102689266897 23.861204280853272 -3.566516502698263 57.026048378717341 40.410126423835756 1.7890432498499806 7.560139580728249 0.69864580472310389 31.975500762939454 -2.7895489569417586 7.931658026892487 2.3209269017805205 60.715888710021979 27.14573991178262 5.9977232207498217 6.4201891408688541 2.1456545499552306 2.3254280703330643 -2.6222048085327296 10.730908645109537 4.4534663520198112 -3.0875507586277449 -5.5541730709016202 -5.3862420502098853 -2.4262765776504622
leaf_count=5498 5197 23 17681 179873 323 314 277 20 24 21 32 4656 1027 30 25 954 1453 11396 20 99 446 554 997 712 516 537 8782 26 479 795 1693
internal_value=0 26.9287 -3.99218 -5.7503 14.007 101.05 8.76947 17.5315 6.4199 247.1 9.88143 9.39082 28.3196 211.949 44.0034 5.64562 24.7653 29.554 49.7454 105.554 0.0982489 90.7796 -9.19217 4.9287 34.3634 59.3931 45.3159 208.572 3.97238 -46.6851 5.44379
internal_count=244480 30787 213693 187818 7945 637 25875 19858 7308 45 25598 25536 5683 62 10929 1423 14661 12849 9506 699 1400 679 1812 7263 1765 1249 8807 125 19853 815 19374
shrinkage=0.1


Tree=31
num_leaves=32
num_cat=0
split_feature=4 0 4 8 69 31 51 30 15 89 0 71 3 0 85 32 36 66 45 1 64 20 72 85 42 7 4 67 10 60 8
split_gain=2.08553e+07 4.23263e+06 4.09598e+06 2.95027e+06 2.83204e+06 2.43584e+06 2.3957e+06 2.29098e+06 2.49081e+06 2.4812e+06 2.43608e+06 2.0202e+06 4.58717e+06 2.00372e+06 1.89007e+06 1.86659e+06 1.82154e+06 1.77921e+06 1.75893e+06 2.27788e+06 1.68979e+06 1.66678e+06 1.92802e+06 1.66413e+06 1.62363e+06 1.68643e+06 1.50567e+06 1.93955e+06 1.70088e+06 1.48589e+06 1.43001e+06
threshold=413.14150000000006 1288.0085000000001 9.4250000000000025 0.018500000000000006 161.50000000000003 -0.064499999999999988 823.81250000000011 0.53450000000000009 0.017500000000000005 1496.5000000000002 889.22500000000014 252487.50000000003 94.348505575331671 1161.1250000000002 0.018500000000000006 1.0000000180025095e-35 87.725000000000009 264.50000000000006 35713.000000000007 316.27500000000003 -20.499999999999996 666.50000000000011 43631.000000000007 0.019500000000000003 313.50000000000006 0.18250000000000002 654.27500000000009 1163.3125000000002 0.99500000000000011 226.50000000000003 0.028500000000000001
decision_type=10 8 10 10 2 10 2 2 2 2 8 2 10 10 2 2 8 2 2 10 2 2 2 2 2 10 10 2 10 2 10
left_child=2 5 -1 -4 16 15 -3 13 9 -9 11 20 -13 -6 -8 21 23 -14 -7 29 -10 22 -2 -5 -12 -26 27 28 -21 -20 -24
right_child=1 6 3 4 7 18 14 8 10 -11 24 12 17 -15 -16 -17 -18 -19 19 26 -22 -23 30 -25 25 -27 -28 -29 -30 -31 -32
leaf_value=-0.67778369561920426 -1.5634585743763081 5.5106015600772862 -0.16744350284102902 27.610612238801664 -1.3143595519747642 -0.52477033156404296 8.3982054209709158 1.1062335413120994 19.864623813535655 -3.8180626034025922 33.981789454435692 1.7967064615803467 21.940501599384447 -31.609384571422233 51.873170876502996 -15.352872547384813 4.0861905449961391 7.4586102807281804 9.9803654950774252 1.7344197912738726 1.6245273840154983 2.4574476600531536 2.0672658428989581 6.8924822049008476 -8.7681890882294748 28.977564210891725 3.7782995093577001 33.000304861068727 19.209597114580021 -4.156729539306391 15.441863166731459
leaf_count=140802 3766 3207 50738 84 2859 1648 20 3114 51 1524 39 754 197 22 20 73 233 149 647 10289 12343 3284 1135 72 29 20 7115 20 56 84 86
internal_value=0 23.9494 -3.63728 2.48496 12.3053 20.0131 58.1396 10.7466 14.89 -5.1184 21.7225 20.641 61.7121 -15.457 301.357 5.67577 96.8543 157.041 26.0371 28.8682 16.9958 7.08091 -4.43882 180.484 187.564 66.3824 26.5811 18.8916 18.2902 83.5586 30.0929
internal_count=244480 31450 213030 72228 21490 28203 3247 21101 18220 4638 13582 13494 1100 2881 40 8344 389 346 19859 18211 12394 8271 4987 156 88 49 17480 10365 10345 731 1221
shrinkage=0.1


Tree=32
num_leaves=32
num_cat=0
split_feature=6 4 10 50 13 5 51 53 69 59 85 0 77 64 94 5 67 52 23 68 36 36 65 44 0 59 1 3 68 75 5
split_gain=1.73159e+07 4.92671e+06 2.86768e+06 3.21404e+06 2.62425e+06 7.45601e+06 6.67405e+06 2.46141e+06 2.27475e+06 2.64456e+06 2.27368e+06 2.50765e+06 2.03922e+06 2.01376e+06 1.93875e+06 1.90578e+06 2.00966e+06 1.90423e+06 1.79526e+06 1.33273e+07 2.02511e+06 1.92524e+06 1.74264e+06 1.727e+06 1.70434e+06 1.63739e+06 1.51922e+06 2.6492e+06 3.2214e+06 1.63474e+06 1.78666e+06
threshold=280.77500000000003 654.27500000000009 0.067500000000000018 1.0000000180025095e-35 4846.5000000000009 2.9040000000000004 219.80450000000005 0.039500000000000007 815.50000000000011 0.10950000000000001 0.016500000000000004 755.29150000000016 130377.50000000001 -0.10549999999999998 0.12150000000000001 1119.1415000000002 1265.4375000000002 0.015500000000000002 0.025000000000000005 1.0000000180025095e-35 460.47500000000008 399.0415000000001 -0.0054999999999999988 0.11050000000000001 0.05850000000000001 0.1125 226.47500000000002 123.12707464425881 1.0000000180025095e-35 0.12250000000000001 1.2332500000000002
decision_type=10 8 8 2 2 10 2 2 2 2 2 8 2 2 2 10 2 2 2 2 8 10 2 2 10 2 10 10 2 2 10
left_child=2 7 26 4 5 -4 -7 15 9 -3 -5 -12 17 24 -9 16 -2 -6 20 22 21 -15 -20 -23 -10 -11 27 28 -1 -29 -31
right_child=1 8 3 10 12 6 -8 14 13 25 11 -13 -14 18 -16 -17 -18 -19 19 -21 -22 23 -24 -25 -26 -27 -28 29 -30 30 -32
leaf_value=0.221875907223298 0.57368914220121159 -0.72711154011421419 -3.3586722323151883 17.732308140914597 16.409773363079875 15.970241756164112 78.843867126464843 3.5450970122848164 25.943869867632465 10.25909053536429 3.3235917233579979 28.792453137839715 -0.41251856491538386 2.5493111640756783 0.2530669494760921 -28.839921240373094 23.894319905461494 2.8993870282618346 30.520408220291138 91.396669158935552 4.4536777699956032 11.163427550083883 5.3178961160305507 40.793602984292164 2.4299210132846625 1.2234439690882259 -0.57168022976974164 -13.402316600254606 36.922531374295552 -13.971128737926485 10.417277093128284
leaf_count=6869 28693 2461 122 167 128 52 25 5794 31 414 677 41 4744 55 2588 22 37 564 30 20 4876 37 321 42 5465 389 179235 35 24 32 490
internal_value=0 16.2568 -4.41522 16.1999 7.40108 120.191 363.838 10.2078 32.1412 8.98824 72.2244 47.7794 3.27211 39.089 25.2866 5.81193 6.03723 53.9842 52.8402 119.962 47.8697 169.149 74.7196 269.162 25.6255 58.8192 -5.13521 8.85707 3.4966 75.194 89.222
internal_count=244480 51275 193205 6520 5635 199 77 37134 14141 3264 885 718 5436 10877 8382 28752 28730 692 5381 371 5010 134 351 79 5496 803 186685 7450 6893 557 522
shrinkage=0.1


Tree=33
num_leaves=32
num_cat=0
split_feature=6 0 2 10 70 10 90 77 3 56 57 18 36 82 34 0 6 7 74 51 0 30 23 9 6 3 79 3 45 3 52
split_gain=1.40358e+07 3.79529e+06 2.58311e+06 2.46986e+06 2.36772e+06 2.82539e+06 2.59304e+06 2.31954e+06 2.99055e+06 2.22634e+06 2.14733e+06 2.14172e+06 1.86513e+06 3.88016e+06 1.72529e+06 2.28443e+06 3.68391e+06 1.97927e+06 1.72492e+06 4.94976e+06 1.68385e+06 2.63301e+06 3.7676e+06 2.14983e+06 1.56997e+06 2.32336e+06 1.88711e+06 2.01386e+06 3.85267e+06 1.51359e+06 1.45374e+06
threshold=309.88350000000008 732.17500000000007 1029.7417142857144 0.087500000000000008 0.011500000000000002 0.99500000000000011 229.75000000000003 131309.50000000003 161.69525003909465 1704.5000000000002 -0.12699999999999997 1.8825000000000001 1430.0085000000001 18.500000000000004 0.026500000000000006 859.30850000000009 4.7250000000000005 0.59050000000000014 1.0000000180025095e-35 219.80450000000005 1391.1585000000002 0.44550000000000006 0.025000000000000005 154.60850000000002 1.5085000000000002 147.23697146052578 218.50000000000003 143.72562016588458 35713.000000000007 306.45126683326464 0.019500000000000003
decision_type=10 8 10 8 2 10 2 2 10 2 2 2 10 2 10 8 8 8 2 2 8 2 2 10 10 10 2 10 2 10 2
left_child=3 2 4 24 12 6 -6 8 -3 14 -9 -7 -2 -14 15 18 -17 -18 30 -20 -12 22 -22 -23 25 -1 27 -26 -29 -8 -5
right_child=1 7 -4 9 5 11 29 10 -10 -11 20 -13 13 -15 -16 16 17 -19 19 -21 21 23 -24 -25 26 -27 -28 28 -30 -31 -32
leaf_value=-0.65839504466860466 0.45390764398133165 2.1380911804678053 -14.057728987668469 9.3809982122176638 8.5688830135644594 7.835900630507358 1.9775411190479275 25.647776279449467 -6.6267724440970461 0.45885343496751391 3.2512207858622952 43.001194605334057 -7.8557234733335441 41.413629439382845 -1.1399729148526105 53.140742610051092 27.234668018943388 -3.3138044029474258 6.4124873213146047 50.632090316280248 8.8323017228324456 -24.173245380235755 53.66574730050975 6.7601084181697111 0.71999391663696743 -6.1967786583019269 -0.26284008972562939 -9.2736203812933589 7.7910563346395252 -5.2017291157253531 1.0223038107902909
leaf_count=104026 23059 1940 113 300 593 43 10637 45 487 4680 8022 29 31 33 383 26 38 48 138 31 53 23 29 970 6006 763 79860 154 939 302 679
internal_value=0 15.5816 10.3705 -3.73934 10.8617 22.5177 21.2847 31.2748 3.7934 15.7066 38.5705 219.997 5.01223 175.488 47.3759 65.2419 201.564 101.844 51.9422 145.238 37.4926 74.658 246.88 60.4363 -4.38058 -6.98722 -1.23949 14.3851 53.867 17.7934 35.837
internal_count=244480 46409 34840 198071 34727 11604 11532 11569 2427 6323 9142 72 23123 64 1643 1260 112 86 1148 169 9097 1075 82 993 191748 104789 86959 7099 1093 10939 979
shrinkage=0.1


Tree=34
num_leaves=32
num_cat=0
split_feature=9 2 61 32 3 43 15 19 50 59 45 16 2 70 75 61 28 35 98 9 22 18 85 23 68 92 51 7 40 23 71
split_gain=1.17678e+07 3.48359e+06 2.89124e+06 2.23383e+06 2.16889e+06 2.988e+06 2.0949e+06 1.97375e+06 4.92774e+06 3.70057e+06 1.96525e+06 2.38338e+06 2.1794e+06 2.17894e+06 2.99285e+06 2.64029e+06 2.0785e+06 1.9631e+06 4.11851e+06 2.0697e+06 1.95871e+06 7.63502e+06 3.38174e+06 1.83942e+06 1.69847e+07 1.92584e+06 2.22115e+06 1.81049e+06 1.88402e+06 1.77244e+06 2.47823e+06
threshold=525.15850000000012 211.84050000000005 -0.10999999999999999 1.0000000180025095e-35 96.219099597787206 -0.055500000000000001 0.12750000000000003 222.50000000000003 1.0000000180025095e-35 0.11550000000000001 44938.500000000007 456.50000000000006 1320.0452142857146 0.022500000000000003 0.12450000000000001 -0.1045 652.50000000000011 532.50000000000011 604.82150000000013 486.14150000000006 0.64550000000000007 2.1885000000000008 0.015500000000000002 0.025000000000000005 1.0000000180025095e-35 -1.0000000180025095e-35 548.91300000000012 -0.13649999999999998 967.50000000000011 0.7250000000000002 253964.50000000003
decision_type=10 10 2 2 10 2 2 2 2 2 2 2 10 2 2 2 2 2 2 10 10 2 2 2 2 2 2 10 2 2 2
left_child=1 7 4 6 -2 -6 10 8 -1 29 11 -3 13 15 16 -13 -15 18 -12 -20 23 22 -22 25 -25 -4 27 28 -27 30 -10
right_child=2 3 20 -5 5 -7 -8 -9 9 -11 17 12 -14 14 -16 -17 -18 -19 19 -21 21 -23 -24 24 -26 26 -28 -29 -30 -31 -32
leaf_value=0.17268103456560469 2.5076107969860724 0.30357675231682341 2.1764974974865798 -6.7373014982164339 -2.1751789661395717 18.896347840627037 -4.0908615539382023 -0.50542960243851898 7.6884081554252477 25.701052105303894 -0.21353041939477491 2.5110638033482768 32.042586644490562 6.7016996470436583 2.6153036277141393 -0.54936113589801971 19.459333331332061 -3.8422984406376575 10.996497992368845 44.718879426377164 16.60507240992494 62.599358367919926 0.761699713520118 4.5871921324864591 80.882988052368162 4.9826804716919746 40.094691342399237 2.9323654325997963 25.976023344152118 1.4537693430696217 34.964106029934349
leaf_count=13647 2268 20425 13201 411 2725 69 904 166729 446 97 2787 6292 24 565 3947 5107 165 1723 52 28 205 25 393 1065 30 86 21 362 85 560 36
internal_value=0 -2.16542 22.8468 5.99219 2.10144 -16.548 6.70979 -4.0723 7.00083 70.1918 7.75678 10.2077 19.3062 18.8566 37.032 11.3993 95.8527 -11.7461 4.28614 227.993 29.6336 84.5646 61.9296 27.3291 66.7749 24.189 81.949 69.3807 154.18 52.8009 97.256
internal_count=244480 223945 20535 42430 5062 2794 42019 181515 14786 1139 41115 36525 16100 16076 4677 11399 730 4590 2867 80 15473 623 598 14850 1095 13755 554 533 171 1042 482
shrinkage=0.1


Tree=35
num_leaves=32
num_cat=0
split_feature=21 0 77 5 33 80 7 18 55 20 15 43 4 85 0 73 2 50 18 31 97 0 82 97 11 44 10 50 85 80 74
split_gain=1.05976e+07 5.90486e+06 4.25045e+06 4.00031e+06 3.99986e+06 3.34857e+06 3.02737e+06 7.51012e+06 5.37296e+06 2.53954e+06 2.05547e+06 1.88092e+06 1.74855e+06 1.73959e+06 3.13615e+06 2.65893e+06 1.7547e+06 2.43767e+06 1.63995e+06 3.67967e+06 3.23783e+06 1.63658e+06 1.63564e+06 1.62625e+06 1.54456e+06 1.52788e+06 1.74357e+06 3.07036e+06 2.56454e+06 2.34815e+06 4.11054e+06
threshold=1.0000000180025095e-35 1391.1585000000002 139461.50000000003 1211.0585000000003 0.28650000000000003 2855.0000000000005 0.5485000000000001 2.1885000000000008 720.50000000000011 514.50000000000011 0.027500000000000004 -0.13249999999999998 349.43350000000004 0.10500000000000002 396.09150000000005 232890.00000000003 460.30471428571434 1.0000000180025095e-35 0.60050000000000014 0.36450000000000005 151267.50000000003 450.642 56.500000000000007 230381.00000000003 1414.2500000000002 0.40550000000000003 0.038500000000000006 1.0000000180025095e-35 0.016500000000000004 2349.5000000000005 1.0000000180025095e-35
decision_type=2 8 2 10 2 2 10 2 2 2 2 2 8 2 8 2 8 2 2 10 2 10 2 2 10 2 10 2 2 2 2
left_child=13 6 4 -4 5 -3 9 10 -9 18 -8 21 -6 16 -15 22 25 -18 19 -2 -21 -11 -16 -19 -13 26 -1 29 -29 30 -28
right_child=1 2 3 -5 12 -7 7 8 -10 11 -12 24 -14 14 15 -17 17 23 -20 20 -22 -23 -24 -25 -26 -27 27 28 -30 -31 -32
leaf_value=-0.49113013054205601 1.1107613680220847 61.424616904880693 67.755364990234384 8.7204854965209968 26.16527756666526 13.081023537485223 7.4664319136101982 11.973445837838311 68.667208719253537 -4.8828250445207422 -3.4437941147356619 2.4433867023072153 4.7398835661652496 0.44510880857868423 6.8243781625827156 14.429720721364385 -5.6638595586009259 2.6149442923183628 0.028013712002620757 3.8527460701899097 20.105709261221765 0.79594804124743246 -7.7527772895036611 29.609099121093749 -6.6042236400524361 0.54111015624516179 -0.17479121291637423 17.389843886989659 4.0177925007131998 -0.20098846828586364 33.108190889681801
leaf_count=165305 5273 23 22 24 39 38 585 35 32 632 245 15564 1634 2983 225 329 1203 208 23525 330 195 2576 117 25 191 17757 100 177 756 4273 59
internal_value=0 12.9419 69.5234 369.546 61.5644 313.089 10.8941 68.4566 390.511 9.82479 42.4594 18.8429 52.3934 -3.26644 18.3458 80.1161 -3.68238 -38.5062 3.9928 19.0567 98.8956 -3.22813 18.3746 55.1131 23.337 -3.41699 -4.33549 13.4064 65.5461 2.43024 121.755
internal_count=244480 50963 1780 46 1734 61 49183 897 67 48286 830 18963 1673 193517 3654 671 189863 1436 29323 5798 525 3208 342 233 15755 188427 170670 5365 933 4432 159
shrinkage=0.1


Tree=36
num_leaves=32
num_cat=0
split_feature=4 0 22 1 68 50 27 33 15 1 95 20 76 83 74 20 20 8 13 9 3 57 52 8 4 78 54 3 79 99 95
split_gain=8.76838e+06 2.58678e+06 2.08322e+06 1.89003e+06 3.09554e+06 2.01379e+06 2.81269e+06 1.87371e+06 1.85525e+06 1.67045e+06 1.81893e+06 1.67465e+06 1.43663e+06 1.37553e+06 1.35423e+06 1.67211e+06 1.96729e+06 1.3485e+06 7.96175e+06 3.00262e+06 1.38295e+06 1.96501e+06 1.93984e+06 1.63631e+06 1.73499e+06 1.5952e+06 1.30467e+06 1.99896e+06 2.32147e+06 3.34559e+06 1.51341e+06
